conv2D - weight
(32, 1, 3, 3)
0.12030509 0.033712998 0.016244872 0.06371147 -0.05115985 -0.082896866 -0.036722165 0.108316265 -0.04966751 
0.07783976 0.11160012 -0.07942204 0.016962683 0.0413645 -0.10135339 0.13490583 -0.026998168 0.11942018 
-0.04023463 0.021436578 -0.110441655 0.039582316 0.01888057 -0.10947897 -0.04615698 -0.08427336 -0.10311725 
-0.08884124 -0.07563591 -0.02130917 0.07540153 -0.021965928 0.004599697 0.013869776 0.0331307 -0.013600416 
0.029229382 0.03749486 -0.028954813 -0.054943778 -0.1173358 0.13265346 -0.09266319 -0.07558469 0.03461104 
0.12811244 0.006850892 -0.06325987 0.046497505 -0.06775304 -0.13149594 0.04700657 -0.08211844 -0.01811459 
-0.03724405 -0.0060949996 -0.13588318 0.014402663 -0.08469952 0.12474307 -0.022238793 0.040446825 0.023215672 
0.058441486 0.028666006 0.118631 -0.100723445 0.06879536 -0.018357348 0.12340478 -0.09478869 -0.06421695 
0.022563007 -0.009408909 0.025319835 -0.029459601 0.035384443 0.12785378 -0.09127858 0.09569959 -0.011341573 
-0.038521435 0.010275034 0.017466106 0.057771746 -0.03137925 -0.02573492 -0.085793525 -0.13279578 -0.06972483 
0.044519316 -0.040300325 -0.14142218 -0.14534314 -0.03367158 0.13401899 0.11239196 0.01579382 0.073487826 
-0.020043837 -0.10569799 0.023328066 0.03458925 0.09352141 0.053010542 0.12881848 0.01269297 0.046584006 
0.10959114 -0.013438075 -0.10686661 0.010551372 -0.13586763 -0.078750625 -0.12888604 -0.13467246 0.111149326 
0.122220285 -0.039678596 0.13882716 -0.13985746 0.069539584 -0.032206357 -0.069409505 -0.028235264 -0.11499542 
-0.03997006 0.078748696 -0.029191459 0.06751105 -0.0060724686 -0.052825224 0.11492149 -0.11239768 0.050837316 
-0.089408085 0.1118407 0.04644523 0.10878672 0.018872341 -0.05124098 -0.13084187 0.081940666 -0.116041906 
0.0114444215 -0.053946286 -0.030933129 0.0590001 -0.073602065 0.056596864 -0.09534244 0.00020902714 -0.1226104 
-0.048898377 0.032793853 0.08983185 0.046681214 0.06607747 -0.0130055 0.08112773 -0.09447648 -0.08103778 
0.044741623 -0.076779515 -0.018596781 0.002137398 0.096661024 -0.11145714 -0.13694468 0.0041655772 0.0073030577 
-0.09047617 0.021175394 -0.120975465 0.00034289178 0.09592346 -0.11454442 -0.017495025 0.103596285 -0.052786198 
0.06910723 -0.12854005 -0.070056565 -0.1403767 0.12613705 0.11790649 0.08846435 -0.14470997 -0.08553112 
0.07604337 -0.04657092 0.092300065 0.04089143 0.09891695 -0.030971041 -0.048285116 -0.033951268 -0.11002421 
0.110288955 0.11778001 0.06355389 0.014748295 0.019977793 0.044335853 -0.13925664 0.103052996 0.033352092 
-0.08889545 0.02910419 0.11024054 0.03096565 -0.081188776 -0.04809353 0.12752575 -0.12505715 0.013992662 
-0.04676275 -0.082403794 -0.036716383 0.06620495 0.04868571 -0.11252945 -0.06668138 0.055838406 0.04511351 
-0.10456453 0.005573637 -0.13809292 -0.13456689 0.036989212 0.09571782 0.06273101 0.06884041 0.09630618 
-0.12429948 -0.12536868 -0.11755249 0.002617252 0.043671787 0.02266454 0.11601848 -0.08673877 -0.094556905 
0.07436579 0.07070352 -0.14220545 0.13196643 -0.0368689 -0.046895746 -0.06609143 -0.078812435 -0.08740415 
0.097248934 0.061364643 -0.03067411 -0.013239157 0.06327921 -0.0026275022 0.04676215 -0.027704125 0.022266313 
0.0004541545 -0.07521859 -0.116422646 0.12823208 -0.02212138 0.00430605 0.013457186 -0.12020358 -0.12341545 
0.09830383 0.13644671 0.0018245674 -0.11534729 -0.11238526 0.049579214 0.08367304 0.06793393 0.11891138 
-0.11095519 -0.09612747 -0.05728889 0.13736838 0.086590745 0.09380671 0.03869564 -0.03303536 0.08593613 
conv2D - bias
(32,)
-0.0013680116 -0.0029581478 -0.004281288 0.002182989 -0.0035962223 -0.008478617 0.0071677053 -0.0046705855 -0.0072652544 -0.0030761715 -0.0072259996 -0.0039387536 -0.007798221 -0.000652559 0.0031243078 0.008003707 -0.003411094 -0.0015199322 -0.008470081 -0.0012792562 0.0011938713 -3.084208e-05 -0.0050115352 0.008865559 0.007629221 -0.004183652 0.0026533224 -0.0032791793 -0.005329011 -0.0024056828 0.0008847237 0.001276977 
conv2D - weight
(32, 32, 3, 3)
-0.08015199 -0.041335545 -0.034938905 0.04700785 0.0404638 -0.055543866 -0.0010452202 0.0056506353 0.022534166 
0.036218368 0.057568397 0.04500246 -0.06494204 0.062248792 0.085642844 -0.040953483 0.055223133 -0.025005614 
0.078300916 0.011941331 -0.0011224571 0.0771492 0.006530641 -0.024388945 -0.001826632 -0.012464779 0.09033452 
0.029138574 -0.017635085 -0.030981705 0.074413955 0.08544441 0.089208186 0.07750072 -0.015788848 -0.037067212 
-0.023891276 0.06921842 -0.07214586 -0.017898774 0.00025380502 -0.05382028 0.063877925 -0.01346587 0.06485375 
-0.038424518 -0.0026269443 0.07092989 -0.021514704 -0.03508712 -0.057106826 -0.06625312 -0.0812542 0.071964756 
0.034686923 -0.0203626 0.016565675 0.061509937 0.070537075 0.0653939 -0.00033849315 -0.004425255 -0.06336952 
0.068242796 0.06616821 0.084473215 0.030123241 -0.03262287 -0.006846422 0.032205153 -0.08838375 -0.059515223 
-0.01221429 0.010265367 -0.08585168 -0.04643309 0.097508505 0.01776876 0.107861266 0.04531116 0.0048939553 
0.09352498 0.030982837 -0.09595965 0.028296169 -0.076817185 -0.09908833 0.0973322 0.06085902 -0.006966822 
-0.06713292 -0.03146696 -0.014181789 -0.06617701 -0.017507177 0.026464837 0.015932547 0.07096361 0.035842147 
0.032285955 -0.053285733 0.07946983 -0.035101794 -0.03154586 -0.040380906 0.0052018883 0.09421384 -0.06997488 
0.053944968 0.010045387 -0.01898163 -0.07930507 0.035671126 -0.023653865 0.046566974 0.054275565 0.10186583 
-0.046276752 0.02103532 0.063150816 0.06438158 0.066239156 0.088890016 -0.049427275 0.013204073 0.040657505 
0.078853086 -0.043045692 0.02776153 0.029360546 0.022229267 -0.02684046 0.063773446 -0.081287116 0.06000298 
0.040636916 0.057916842 0.08964505 -0.07238576 0.021953657 0.07886881 0.10083476 -0.016544828 -0.055839684 
-0.0046682707 0.027247824 0.0835303 -0.06653858 -0.06456095 0.090933725 0.0021499207 0.04580106 -0.08305325 
0.092514865 -0.013761514 -0.09129215 0.011596169 -0.047528014 -0.09085044 0.06367004 0.05052059 -0.06781959 
-0.048091434 0.09745863 0.045779105 -0.082145914 -0.041762024 -0.0012984971 0.08197444 -0.01572545 0.05881368 
-0.032577924 -0.06045329 0.06557709 0.06933001 -0.024331747 -0.051869422 0.094434656 -0.083766885 0.051464878 
0.00012371468 -0.0860774 0.021512711 0.08857624 -0.037323702 0.0035396728 0.058293074 -0.08663178 0.0009261744 
0.07373183 -0.06715841 -0.05721703 0.025025327 0.073019445 0.011052274 -0.061933573 -0.028831512 0.10344229 
0.023046471 0.037457157 -0.07685536 0.08560183 0.079920754 0.08386093 -0.006440896 0.10555357 0.0012131471 
-0.08912547 0.053103145 0.018300928 -0.04441655 -0.01954726 0.106316745 -0.045752257 0.05897462 0.099135675 
0.03636208 0.11077025 0.09538044 0.0896918 -0.0020773634 -0.05759662 -0.074206166 -0.075936705 -0.024012605 
0.040905576 0.016978782 -0.052076433 0.08283107 -0.009046295 -0.043892577 0.08140455 0.0769351 -0.00556163 
0.021986201 -0.07236664 0.00035620888 0.017661538 -0.03378733 0.045788016 0.026229912 0.018493317 -0.08801908 
0.048803035 0.09960248 -0.07509006 -0.09724088 0.0065544117 -0.059582546 0.04009618 0.06891849 0.050542507 
0.09022772 0.00789499 0.009876437 -0.07901695 -0.08461026 0.078444816 0.10250805 -0.04205443 -0.08589524 
0.026222296 0.044721033 0.034239136 0.06431721 -0.036845293 -0.0058058305 0.0084010335 0.09243071 -0.00026957528 
0.057981815 -0.03762949 0.1074757 0.05628302 -0.07483017 -0.066909686 -0.041737195 0.08401287 0.0015187142 
-0.029299779 -0.038065985 0.10429243 -0.08946961 0.09854813 -0.038856525 -0.011574604 -0.008790597 0.0002562146 
-0.06882589 0.084399864 0.07546728 -0.07982545 0.057271253 0.014431023 -0.049423706 0.00021890583 0.064476006 
0.08540742 0.020777576 -0.08180409 0.072825305 0.073943734 -0.08049577 -0.05572659 0.05395214 0.03432004 
0.097057514 0.025692811 0.01908883 -0.064529575 0.022011124 -0.0022525177 0.014103204 -0.03530108 0.08771098 
-0.054485727 0.04047401 -0.025628526 -0.037108965 -0.080426656 -0.1019313 0.0888988 -0.052580684 -0.0025515375 
-0.038987435 0.0075353407 0.028463375 0.014650637 0.09162984 -0.009958779 0.06615321 -0.055810127 -0.055727143 
-0.005667685 0.06425355 -0.013141507 -0.09620368 -0.05249054 -0.007162597 -0.041096747 0.009809981 0.05251586 
0.085813485 0.031789497 0.058706313 0.06496879 -0.036492046 0.0517336 0.03971861 -0.056082726 -0.06790412 
0.097000524 -0.09420483 0.014215124 -0.069100276 0.08876012 0.023961164 0.046102464 0.035058513 0.064040884 
-0.06969374 -0.061272413 0.026190251 0.019250456 -0.0060115126 0.05767994 0.0045978045 0.05341565 -0.020625519 
-0.097875305 -0.020290945 0.030883245 0.08622359 -0.06209336 0.08311135 0.0044482467 0.06697923 0.03114539 
-0.028043568 -0.03143116 0.013922096 0.0400706 0.058756445 0.07440014 0.07648811 -0.07458615 -0.012381556 
0.07527849 0.050227128 -0.08008958 0.07150711 0.036837064 -0.027739894 -0.03410142 -0.062232297 0.07684565 
-0.02772553 0.033055414 -0.08491597 -0.014088397 -0.012445856 -0.01872194 0.05725127 0.08006199 0.08117319 
0.04694373 0.042999547 -0.08987779 0.024890004 0.095934 -0.04258689 0.022312848 0.07731562 0.021119962 
-0.09802274 0.056547366 -0.026269488 -0.022954931 -0.0055026384 0.05636728 -0.036124382 0.062190734 0.053765982 
-0.03106239 0.04901891 -0.00029729932 -0.01598308 -0.05788229 -0.06702866 -0.0855014 -0.01657703 -0.101414025 
0.0488886 -0.06636453 0.09344269 -0.10273121 -0.025069656 -0.08136506 0.023793964 0.03257687 -0.035237998 
-0.03288399 -0.043138977 0.078693554 -0.030999156 0.09462833 0.0705764 0.03584175 -0.061871883 0.019194568 
-0.06750611 -0.024195723 -0.05385096 -0.080459364 0.07396454 0.034080423 0.07487957 -0.02835913 0.043405153 
0.0006422147 0.063795626 -0.089802004 -0.0560834 -0.10337122 -0.10939716 0.053367533 -0.06270977 -0.05843788 
-0.044829965 0.020232512 -0.069170326 -0.030134188 0.06501144 -0.052126233 0.0010341348 0.0786612 -0.07066528 
-0.09184432 0.0455214 -0.094564974 -0.06752369 0.002853834 0.026597552 -0.10360489 -0.0910849 -0.08067721 
-0.10222961 -0.037151832 0.024193995 -0.014455992 -0.050898135 0.084543824 0.042844433 0.07846659 -0.06883751 
-0.0074185864 0.020885024 -0.08065041 -0.037873413 0.027948698 -0.09457642 0.009375229 -0.020688433 0.02948054 
0.077684835 -0.103389755 -0.10725052 -0.09519236 0.08605452 -0.023745652 -0.084426016 -0.050217718 0.036634907 
-0.005287038 0.039438315 0.097073115 0.078549415 0.029754203 -0.08382303 -0.039361242 0.0041054403 0.07765375 
0.07299562 -0.1124256 -0.042435076 -0.093342274 -0.07266878 -0.05554878 -0.00849179 0.09378199 0.058707338 
0.043981478 -0.10384331 -0.028452978 -0.066568404 -0.03892082 -0.0035943466 0.04826862 0.09330173 -0.077349156 
0.06776108 0.005671709 0.073335975 -0.035188146 -0.09355005 0.011061448 0.059301674 -0.08104301 0.037900172 
0.017232815 0.01609624 0.053544752 -0.044700306 0.0007563861 -0.020060083 -0.07605838 -0.048085913 0.08576265 
0.0149066085 0.0030178223 -0.0016844384 0.018956233 -0.046436142 -0.06407285 -0.005871035 -0.009763423 0.04102943 
0.031294588 -0.08802376 -0.026091179 -0.03338234 -0.06341488 -0.032973826 0.023202864 -0.1025059 -0.072988324 
-0.08988637 -0.08165651 0.04567214 -0.08504052 0.028749198 -0.07752137 -0.058209855 -0.025554223 -0.058052268 
0.07931637 0.0041088304 0.078910396 0.08326265 0.017001657 0.007986423 -0.012062173 -0.082713805 0.07477907 
0.007996875 0.05280774 0.08899012 -0.058885615 0.022720907 0.009628555 0.033969026 -0.09778207 -0.0037556118 
0.09100871 0.09109863 -0.036982197 -0.011706137 -0.058640305 -0.00021749761 -0.03027321 -0.06198622 0.045673814 
-0.07059939 -0.033210035 -0.04510955 0.050428316 -0.046625692 0.051839847 -0.019925963 0.007137101 0.09734517 
-0.054901835 0.08801598 0.037740126 -0.0679202 -0.060036417 -0.030728785 -0.056010827 -0.03487078 -0.062220164 
-0.02894226 0.06972809 0.034523442 0.03325772 0.05469003 -0.08751482 -0.049668185 0.09071352 0.05178203 
0.0027840207 0.0809127 -0.103241496 -0.011442463 -0.043425985 -0.084866874 -0.030515341 -0.10470777 0.06324224 
-0.012999638 0.040107574 -0.088880755 -0.04050561 -0.074574746 -0.05008182 -0.0115163615 0.07690161 -0.034237884 
0.018644592 0.08981085 0.070078224 -0.025110757 0.055596225 0.06647515 -0.07595601 0.030872965 -0.06885261 
0.055842254 -0.07922667 -0.0687371 -0.008590298 0.0058217742 0.007204812 -0.10113944 -0.033907995 0.08131162 
0.02537123 -0.09982353 0.08733361 0.06276649 -0.07483784 0.075809725 -0.069415614 0.017920442 0.0123263765 
0.053202823 0.074217044 0.09618077 -0.03460777 0.08361077 0.06873953 0.026380794 0.0019590263 0.049839724 
-0.056688707 0.043141507 -0.036322407 0.027533876 -0.035768867 -0.0034006187 0.02649787 0.039999545 0.04880803 
-0.09926832 0.058768418 -0.07161791 0.07045428 -0.03225624 -0.030524086 -0.06976246 -0.089657046 -0.07454726 
-0.05017346 -0.057929162 0.006221339 0.038120613 0.047051948 0.023412926 -0.07331063 -0.034493323 -0.05725584 
0.021340156 0.003660858 0.09452968 0.0008314359 -0.004970643 0.070862755 0.09834643 -0.047925893 0.0842781 
0.033846147 0.040573586 0.09089138 -0.050830808 -0.057667367 0.039293222 0.032731827 -0.101595245 -0.0205058 
0.027883824 -0.047733933 -0.084653445 -0.0685368 0.054774817 0.028966703 0.0905381 -0.074301146 -0.025772668 
-0.05694895 -0.007816621 0.009414348 0.002660239 -0.01758159 -0.059910607 0.062213823 -0.087230094 -0.08918237 
-0.0021902593 -0.029349769 -0.018686272 0.089304 0.04361286 -0.05688286 0.017117191 0.07300729 -0.018107966 
0.033837605 -0.04248835 -0.055816777 -0.023329189 0.066249706 -0.07190379 -0.10272242 -0.10441636 -0.05018745 
-0.0064368886 0.05142851 -0.07228055 0.072004735 0.08183121 0.06744914 -0.02330468 -0.092924 0.072322145 
0.06040012 0.09647576 -0.017916415 0.05231639 -0.038688626 0.07178234 -0.027273146 0.0069680586 0.059510805 
0.103672005 -0.08604054 0.004239373 -0.08418873 0.0012350453 -0.07809501 -0.08044394 0.07210679 0.05494191 
0.017183563 0.0828491 -0.07688534 -0.010755236 -0.054086823 0.022727296 -0.05870267 -0.051287077 0.050125614 
-0.101265274 0.076039165 0.009672441 -0.09200448 0.09901014 -0.0023172318 0.03300934 -0.08057138 0.095238626 
-0.05579643 -0.014176727 -0.07755913 -0.04204372 -0.00784145 0.030976636 0.09254703 -0.092047036 0.03608585 
-0.06438808 0.056087285 -0.024693938 -0.0022762776 -0.033380028 -0.099623956 -0.04365571 0.05098599 -0.06173627 
-0.0816263 0.015888887 0.06754945 -0.06256873 -0.063350424 -0.027113289 -0.015416457 0.058038432 -0.052368477 
-0.09196405 0.06953181 0.05310159 -0.05338372 0.05563932 0.057858765 0.04513238 -0.06635424 -0.028252346 
0.07839117 -0.08300847 -0.029123431 0.030842926 0.037717104 -0.074625775 -0.104151964 0.027841458 -0.090815075 
-0.097501084 0.007451008 -0.0831938 0.031020716 0.082759716 0.09598853 0.044948727 0.013035078 0.09989156 
0.063354544 -0.09974702 0.044165175 -0.04807165 -0.057878647 -0.086373776 -0.0017260793 0.022219371 -0.055871475 
-0.0058566486 -0.030691762 -0.09097658 -0.08527568 0.07719399 0.058567677 -0.014236011 0.035249162 0.020021394 
-0.060576007 0.04256832 -0.03846234 0.013015161 -0.025916198 -0.08638956 0.019959709 -0.086196885 -0.018416163 
0.06324989 0.034018494 -0.0044883895 -0.023331746 0.02220047 0.02690993 0.08603059 -0.021892574 -0.041291714 
-0.06816499 0.076445706 0.030937549 0.075067006 -0.10256941 0.02724131 -0.030119648 -0.09928599 -0.007978913 
0.10723684 0.07888015 -0.02648756 -0.0744517 0.09838211 0.10428983 0.11003693 -0.030251049 -0.033467866 
0.08103515 -0.012589347 -0.009478759 0.04991711 -0.005104831 0.09133276 0.065357886 -0.073472574 0.050348084 
-0.07616851 0.053245753 -0.04370646 0.021760803 -0.036843076 0.02093298 -0.07073069 0.05738582 -0.021205744 
-0.00944224 -0.0861433 0.037538707 -0.082570285 -0.008438709 -0.094525926 0.069267675 -0.03834584 0.0017481275 
0.0997268 0.030461233 -0.09397672 -0.05470265 0.07753388 -0.02642621 -0.065367274 -0.041619636 -0.015721256 
0.04742818 -0.043961067 0.040383723 0.01841311 -0.10260638 -0.023464248 -0.019464057 -0.10092309 -0.050159596 
0.076842 -0.085179284 -0.03646388 0.07011178 0.06290946 -0.052359454 0.049040586 0.100267194 0.05306685 
-0.047008514 0.06778311 -0.020897752 0.07073521 -0.06682645 0.040381122 0.08450652 -0.06445222 0.028967274 
0.092349105 -0.0015570738 0.065191366 0.009059988 0.043578997 0.04050574 -0.08628314 0.057043683 -0.0920286 
0.025298443 -0.06340617 0.0985141 -0.04872375 -0.050205585 -0.06531057 -0.07017667 -0.0670738 0.09044249 
-0.0026102792 0.033168245 -0.03350701 -0.044005178 0.08861989 0.03367619 -0.015512119 0.047478076 -0.048984814 
0.032062776 0.0040655625 -0.07939129 -0.063562475 -0.011079922 0.070315905 -0.011669403 0.07297488 0.08498558 
-0.074421145 -0.059543174 -0.022354543 -0.0025780913 0.0551014 0.0140951695 0.015179995 -0.06686658 0.023237284 
0.04883773 -0.09008303 -0.1018861 0.01303767 -0.055041946 -0.0059407414 0.03936047 -0.0659535 -0.051242687 
0.05311034 0.001274576 0.054409433 -0.04625384 0.07572556 0.062259812 -0.10548366 -0.015096964 -0.09195995 
0.02102666 0.037721407 -0.053455193 -0.052560885 0.07547924 0.029771673 0.094652586 0.009343716 -0.013642085 
-0.06727405 -0.04925105 -0.050150044 -0.048590295 0.025240736 -0.023496052 0.030655365 0.027457336 0.049762595 
-0.049102467 -0.013942297 -0.027966898 -0.048060797 0.05562075 0.081763685 0.010350405 0.0490762 -0.004497109 
-0.070097536 -0.09630735 0.07873725 0.07569606 -0.09909052 0.04603711 -0.092833705 -0.085954964 0.05362074 
-0.08565501 0.06543249 0.048650287 0.07736482 -0.07762496 -0.09140937 0.08186292 -0.07715614 0.09260236 
-0.012279308 0.055942424 0.08306326 -0.07414566 -0.06487053 0.09305899 0.047815908 0.059966326 -0.022006556 
-0.010597679 -0.06838888 0.061252136 0.057572953 0.0050889594 -0.0737072 0.011407832 0.09715406 -0.06975067 
0.08051191 0.0062211202 0.012550789 0.08428525 -0.06316563 0.08904056 -0.08715305 0.04744906 0.066113025 
0.04711189 -0.028556112 0.06547099 -0.043498844 0.09325706 0.08145555 -0.06802259 0.025172848 -0.100424305 
0.017436512 0.067121714 -0.059227247 -0.087377846 -0.09467722 -0.06293558 0.00032783725 -0.018608293 -0.060651906 
-0.025061749 -0.0022916186 -0.052227322 0.093301475 0.08893775 0.08632841 -0.0058338377 0.047490273 0.0599619 
0.02688453 -0.09640765 0.0040572407 0.094064824 0.07481762 -0.0013470517 0.036954787 -0.038790617 -0.05026989 
-0.090044804 0.06079979 0.06386679 -0.012026093 0.09777433 -0.06724038 0.0011422753 -0.06922329 -0.030379971 
0.08397559 0.037697833 -0.0028121213 0.066234834 0.08822203 -0.04354576 0.023695577 0.013463752 -0.091644086 
-0.062566616 -0.055885542 -0.037074875 -0.04165981 -0.019045053 -0.0039401557 -0.071524516 -0.024793599 -0.05134661 
-0.014070988 -0.05513043 -0.04086363 0.077531725 0.09994451 -0.005920322 -0.019295704 -0.09869746 0.047506254 
-0.057439215 0.00078757724 -0.020664759 -0.03187654 -0.030142294 -0.02568994 0.07198516 -0.09370951 -0.055685926 
0.034045193 0.03203033 0.07941444 0.005107014 -0.05594047 -0.00027545125 -0.060727008 -0.071568415 -0.06426088 
0.03713589 0.045865465 -0.053267654 -0.0040649306 -0.08921771 0.092534535 -0.06632537 -0.08199655 0.10132062 
-0.071973026 -0.05407385 -0.07043539 0.097641446 -0.046692148 0.016560303 -0.09681051 -0.080834225 0.033270396 
0.07293484 0.079449385 0.054566834 -0.088346496 -0.047241826 -0.025898416 -0.030089164 -0.02725163 0.044773877 
-0.09433354 -0.00079451996 -0.029261373 -0.011387223 -0.038000755 0.019103987 0.06629691 0.06798855 -0.08208411 
-0.09530168 -0.02815537 -0.022169886 -0.028240014 -0.07860795 0.047519926 0.07739015 0.04142344 -0.031827044 
0.012983697 0.07226498 -0.058689676 -0.025082508 0.03722323 0.024586437 0.046186287 -0.059808873 -0.09040515 
-0.023595557 0.0958738 -0.091869816 0.096208274 -0.0068289964 0.052246753 -0.009306744 -0.09943557 0.048245165 
0.04205675 0.06949659 -0.031981338 0.05459751 -0.0052645854 -0.09648518 -0.08515072 -0.008094236 0.0064510414 
-0.035662737 -0.10197999 0.0065355795 -0.054319028 0.06914794 0.052903336 -0.0699875 0.054061808 0.078142285 
-0.050118882 0.08640942 0.084602736 -0.05012744 -0.0010643683 0.09781729 -0.077505134 -0.08276352 0.06805325 
0.08101294 0.053876005 0.03849938 -0.031839535 -0.077229 -0.06087888 -0.076164134 -0.04890217 -0.04093778 
0.012184177 -0.03131343 -0.02277446 -0.005012385 -0.03230373 0.066084445 -0.051824123 -0.0646517 -0.012626586 
-0.03354266 0.033102844 0.028169826 0.0023608601 -0.0015419847 -0.08071462 0.08399275 0.019922318 0.092870764 
-0.0690384 0.049128573 0.026419288 0.022867521 -0.06554021 -0.022262063 0.086198606 0.08352913 -0.051815223 
0.089879625 0.010813866 0.027692227 -0.060716297 0.0044342796 0.07846626 -0.09423535 0.024227135 -0.07784013 
-0.078313194 0.062610455 -0.09649372 -0.070868425 -0.03047246 -0.010071804 -0.10468539 -0.0024440002 0.06422719 
0.07473824 -0.021886708 0.07116738 -0.015850695 -0.0819345 -0.080081075 -0.021695495 -0.051304713 -0.056896485 
-0.040296495 0.07150647 -0.07262491 -0.061080717 0.08735908 0.009779195 0.07177848 -0.016116276 0.09350835 
0.048106622 -0.020584572 -0.050792344 0.056209784 -0.07783773 -0.09255357 -0.04527954 -0.025957251 0.02514938 
-0.012575558 0.011947775 -0.04993205 0.008251892 -0.056407798 -0.06386722 -0.100312054 0.00072621804 -0.042885307 
-0.054149486 -0.04225495 0.061751626 -0.039980594 0.026136216 -0.004798055 0.087034106 0.0075537004 0.04588747 
0.05508539 -0.05918536 -0.070820615 0.013307704 0.06659726 0.06852491 0.09491035 0.07929843 -0.10369896 
-0.08428737 0.07437301 -0.07073734 0.052850362 0.0744022 -0.059110202 -0.03416357 -0.0985201 0.09610578 
0.06990996 -0.046219844 -0.048342507 -0.042225372 -0.083001845 0.037631735 0.032149468 0.029600699 -0.057137094 
0.02507042 -0.028848171 -0.09229342 -0.07807345 0.076671265 -0.08431799 0.045643095 0.023095729 -0.011905592 
0.02314405 -0.08715686 -0.0016526437 -0.04927742 -0.022991475 0.03158496 -0.015148267 0.0940514 0.05852744 
-0.064020626 0.05257414 0.08535865 0.019738471 -0.016980466 -0.017945433 0.008370255 0.06517562 0.06182701 
0.06387022 0.009317298 -0.07162867 -0.036243767 -0.014146605 -0.02213857 -0.03771362 -0.006689323 0.009486087 
-0.08208924 0.039021797 0.07275785 0.062040985 -0.055885732 0.05654373 -0.05401718 0.08948965 0.079756744 
-0.10838151 -0.071783505 -0.056866646 -0.074986875 -0.052904855 0.022505546 0.058715373 -0.062471174 0.09208451 
0.02253852 -0.03092344 0.0016077755 0.030354118 0.01857254 -0.027551651 0.029795105 0.016361836 -0.006799364 
0.0103746895 -0.021945244 0.07005401 -0.09900415 0.058971893 0.030035686 0.04321431 0.03579394 -0.034736328 
-0.023699835 -0.078384824 -0.0017132738 0.017351996 -0.047387373 0.0775468 -0.011862569 -0.06260457 -0.047418654 
0.038609978 0.06355255 -0.04366703 0.04662104 -0.0044137007 -0.10109981 0.09380939 0.05468987 -0.003970643 
-0.044267558 -0.09071737 0.07971239 0.08527794 -0.09792717 -0.09642222 -0.091435835 0.02050764 -0.04524948 
-0.07873395 0.01994081 0.09746915 0.03575412 0.097159706 0.04413615 -0.015615341 0.07904555 -0.060744546 
0.010282343 0.03948707 -0.02570046 -0.08073931 0.052413333 -0.0118643185 -0.003016143 0.05524419 -0.053881537 
0.085929945 -0.0874818 -0.07353218 -0.06565097 0.06687781 0.046401504 0.030930214 -0.057770282 0.078201145 
0.075228125 0.0019926154 0.03301272 -0.044598144 0.04601121 -0.049375564 -0.023990503 -0.10223516 0.055373423 
-0.04762881 0.05069201 -0.07312352 -0.06725432 -0.0037802155 -0.03969651 -0.09147466 0.048675433 0.023246136 
-0.024991933 -0.09587785 0.06517658 -0.0642013 -0.018531874 -0.036066454 0.09215976 0.03505869 -0.020193629 
0.031580564 0.045444675 -0.07619384 -0.04514838 0.051702313 -0.026323423 0.040786043 0.07235579 -0.08401654 
-0.027024774 -0.012980352 0.019017704 0.009986342 0.042533938 -0.054969706 -0.042788304 -0.097986974 0.0449422 
0.004991035 -0.095202655 -0.04021596 -0.022936258 0.000364947 0.031589568 0.013833662 0.09161406 -0.095035404 
0.09167354 0.03387515 -0.0071850135 -0.038478676 0.09527348 -0.03780479 -0.06005708 0.009490159 -0.06785422 
0.033520542 -0.08975885 -0.005302443 0.059006643 -0.07459868 0.041576978 0.057407096 0.0019280792 0.06813036 
0.07668019 -0.033061337 -0.08481039 0.024759423 -0.090910785 0.07877495 0.027119987 -0.025425807 0.014077728 
-0.08876992 0.036253765 0.015220095 -0.08542552 0.084312186 0.088714495 0.07039739 -0.012853726 0.06476896 
-0.104649894 0.075472824 0.023232942 0.023090033 0.09554047 0.04877698 -0.05424474 -0.053529654 -0.05477848 
0.009531954 -0.10067323 0.053855725 -0.085306324 0.045202557 0.054334518 -0.05356921 -0.08850398 -0.07205299 
-0.07210763 0.078639805 -0.008510166 -0.015558099 -0.04844319 0.0688687 0.0013361825 -0.08762919 0.08650591 
0.039085448 0.03616104 -0.06870436 0.06894611 -0.054943938 -0.02122169 -0.05397311 -0.0119577 -0.005341927 
0.026124679 0.09243818 -0.09437352 -0.03216631 0.09733086 0.04523922 0.061682638 0.010154979 0.03279991 
-0.040660925 0.054119382 0.08480009 0.028648699 0.019933024 0.06772594 0.039388176 0.0843272 -0.051663082 
0.008806294 -0.009574125 -0.08984613 -0.013930912 -0.0053292084 -0.025391662 0.00980378 -0.08645089 0.009343767 
0.07015059 -0.09418661 -0.08645942 0.020885987 -0.005731861 0.018964313 5.597378e-05 -0.08072263 -0.07918294 
-0.032094292 -0.00955823 0.06971459 -0.08819022 0.07752738 -0.019947868 -0.055267986 -0.0979724 0.06143262 
0.019976871 -0.032367565 -0.08885823 0.086726055 0.0010159684 0.03062961 -0.07440142 -0.010224514 -0.025608705 
-0.06275414 -0.030273218 0.043139014 -0.047570344 -0.06190395 -0.033748444 0.001026015 0.02966616 0.037297845 
-9.974037e-06 0.030683199 0.024816623 -0.08224036 0.09674161 -0.00042441298 0.08372072 -0.08995233 -0.03799961 
-0.0460951 0.08285107 0.011824889 -0.10061508 -0.1038838 0.06433359 -0.009938095 0.07877217 0.027954897 
-0.04536692 0.09430971 -0.024478672 0.0415302 -0.050306384 -0.101104125 0.08306791 0.085798524 -0.007153645 
-0.048870627 0.08128036 -0.09213257 -0.10383714 0.040809143 0.055547465 -0.07787873 0.022110296 -0.01982421 
-0.06570235 -0.066208094 -0.026336692 0.10125763 0.005104467 0.015427127 -0.05408548 0.05883685 0.06032638 
-0.101518326 0.055516172 -0.010267456 -0.023678293 -0.067442335 0.088328525 -0.06518744 0.043851003 -0.005772851 
-0.036363315 -0.053525534 0.043512795 -0.058145978 -0.00034920318 -0.08855844 -0.09225388 -0.06833537 -0.09936176 
-0.09651655 0.040281963 -0.07066907 -0.011013637 -0.05009711 -0.0024324511 0.051988 0.06299408 0.073384605 
0.011549391 -0.02763722 0.063031584 -0.02442621 0.04146201 -0.07611085 0.015715368 -0.033338573 -0.022158409 
0.021247413 -0.058675203 -0.06285576 -0.06228773 0.0023896496 0.037918277 0.027447373 -0.08770823 -0.09660959 
0.044393793 0.052882727 0.06242631 -0.10294958 0.030094402 -0.08082191 0.052594386 0.027567392 0.07063208 
-0.034093685 0.05904194 -0.029657729 0.039657228 -0.038169324 0.01705356 0.010838074 0.09425592 0.07238097 
0.0038183143 0.04067908 0.070576504 0.0973796 0.09287641 0.035878092 0.04854171 0.05548966 -0.025683293 
0.04608414 0.030682405 0.054632198 0.052884486 0.067531854 0.01784117 0.03230948 0.05547041 -0.006095635 
-0.08307947 0.017666472 0.018812947 -0.041498344 0.07741957 0.06672155 0.0641975 -0.008789584 0.1010442 
-0.08802093 -0.03690395 -0.08132647 0.07345824 -0.0037647374 0.003614103 0.0015912198 0.09600703 -0.06307759 
-0.047860105 -0.036748037 -0.0040966584 0.07088424 -0.0025090987 -0.09450423 0.08374017 0.09114053 -0.082302436 
-0.09504603 0.05776065 0.084640905 0.056931034 -0.049290072 -0.069471665 -0.080619834 -0.09859952 -0.044395987 
-0.035504676 0.008805329 0.087528065 -0.088409096 -0.004310481 0.09598948 0.04292924 -0.019347912 -0.029996043 
0.073955365 0.0071677035 0.0719806 -0.006407999 -0.023929596 0.053141505 0.00031763915 0.0532277 -0.045540728 
0.081648946 0.09298119 -0.03418246 -0.079251766 -0.091959074 0.043731395 -0.07527623 -0.022926105 -0.027832195 
0.066427335 0.037001096 0.02302227 -0.021773303 0.045798644 0.000485125 0.06568925 -0.05224092 -0.062330425 
0.049864255 -0.073502444 0.066275954 -0.061261624 0.06345911 -0.04334303 0.09556108 -0.08988796 -0.06038783 
-0.041593608 -0.055756178 -0.05394589 0.059438065 0.048659805 0.0499034 0.049080126 0.035262294 -0.10277709 
0.06674013 -0.0058671334 0.029495643 -0.0011670741 -0.023416238 0.053294115 -0.00023668053 0.003343346 -0.013927619 
0.07617091 -0.05804126 -0.09565899 0.09727709 0.034575883 0.002284346 0.061041243 -0.08316722 -0.024875166 
-0.050975222 -0.038343597 0.06495999 -0.093765 -0.0006522557 0.013925508 0.07456815 0.041221675 -0.08571993 
0.097615525 0.07788407 -0.011806729 -0.026987063 -0.04328516 0.0570715 0.061880097 0.08146302 0.093156606 
-0.048654065 0.09454771 -0.03427619 -0.099913225 -0.06615232 -0.046162866 0.077069364 -0.05260557 0.06538715 
-0.09497425 -0.02824874 0.050256904 0.07613161 0.08229319 -0.0787042 -0.030944858 -0.060414836 0.08114796 
-0.027928902 -0.06125848 -0.06342879 -0.038635064 0.022985896 -0.099183954 -0.020501392 -0.06694479 -0.06311626 
-0.028801996 0.09514915 -0.030955868 -0.06305991 -0.077318184 -0.039936762 -0.04569342 -0.023587417 0.085258126 
0.06613182 -0.017856574 -0.055140175 0.098636925 0.051542267 -0.09799964 0.003221969 0.026059918 0.07861216 
0.0877041 -0.07590625 0.08263235 0.004116661 -0.0011226931 -0.034499142 -0.05129307 -0.0677685 -0.07685204 
0.06321332 0.061579462 0.0067588063 -0.043766826 0.088645905 -0.020187201 -0.07010061 0.07221269 0.076016515 
0.060864817 0.04383373 -0.06528548 -0.05838382 0.015775923 0.044823326 0.010349816 -0.08803796 0.08851931 
-0.02090796 -0.031015188 -0.04680452 0.085823655 0.040373232 0.014083207 0.00239242 0.021333706 0.032532033 
0.04080979 0.058882665 -0.012781288 0.06931273 0.026946282 0.03579904 0.021843318 0.039450616 -0.08475469 
-0.052621335 0.02602042 -0.068021074 -0.08478115 0.07186378 0.0488875 -0.014267401 -0.050084807 -0.054712623 
-0.016938124 -0.017586306 0.038595654 -0.023185253 -0.08969276 -0.041957535 -0.08486384 0.10362965 -0.09107848 
0.09059398 -0.025126204 0.03895477 0.053175595 0.030827481 -0.09010092 -0.03729105 0.09185819 0.0845501 
-0.097557805 0.09527102 -0.043240383 0.03753239 -0.05701359 -0.04767475 -0.0617552 0.063508615 0.015979417 
0.07132393 0.0836763 -0.09892555 0.059308704 0.0966545 0.056695227 -0.055125035 -0.04069319 0.09817606 
0.026926478 -0.0714635 0.024472235 0.044248156 0.014520032 0.041603502 -0.077440694 -0.018383328 -0.015818093 
0.010373519 0.05453849 -0.028486576 0.042820014 -0.09674527 -0.032618012 -0.058871385 0.08880524 -0.018668788 
0.049913514 0.087470196 -0.03433407 0.031518146 -0.0290273 -0.046452064 0.03850331 -0.059982564 -0.01812075 
-0.07980793 0.067706354 -0.031614035 0.03542677 0.035598986 0.089749604 0.040452864 0.053615756 0.022528434 
0.07001395 0.015480686 0.057973996 0.06776765 -0.04982458 -0.09130119 0.09308102 -0.029580796 0.09298775 
0.057454318 -0.005724676 -0.038037002 0.06347997 -0.08632386 0.008656005 0.037283283 -0.01643862 0.08247379 
0.080684476 -0.06733226 -0.06543855 -0.09638753 0.08820932 0.012652766 -0.06784077 -0.021079386 0.098254055 
-0.030874573 0.021374315 0.011939959 0.044475906 -0.10034451 0.07680068 0.028790746 0.018894643 -0.08629608 
-0.09204103 0.06883182 -0.094237685 0.08577576 -0.07081713 -0.09497846 -0.060845245 -0.057333637 -0.0975766 
-0.033791706 -0.024922952 -0.08919895 0.09698439 0.048429925 -0.009183723 0.06788495 0.09561023 0.023015508 
-0.040888637 0.037377063 -0.06583132 0.09396018 -0.05659028 0.06449297 0.022235563 -0.09665766 -0.04476651 
-0.06532003 -0.045995526 -0.0548643 -0.016934033 0.0978721 0.06425924 0.013165746 -0.09598248 -0.0931646 
0.022004409 0.06822055 0.015070856 0.084985405 -0.017175103 0.07794359 0.0005112865 -0.048629727 0.08938774 
0.089536056 0.04852882 -0.062798455 -0.020544125 -0.017053332 0.066292524 0.0951809 0.08296606 0.054838553 
-0.04676201 0.07768336 0.011392742 -0.0728203 -0.09227947 0.02243928 0.059806194 0.031708464 0.08536605 
0.09197373 -0.0914616 -0.024919435 0.065216005 -0.08018609 0.057968333 -0.07811134 0.0039863815 -0.06932186 
-0.032957952 -0.0511169 -0.043006152 -0.005176797 -0.046720445 -0.08145339 0.0241932 -0.055090103 -0.03273001 
0.062561184 0.046986308 -0.007579062 0.012352836 -0.03872288 0.053220186 0.092242196 -0.0685114 0.07593397 
-0.08186824 -0.023944218 -0.04959605 0.052350126 0.09252864 -0.025247838 0.037352186 0.06210568 -0.040626064 
0.027486712 -0.07614916 -0.03010407 0.09788036 0.0028686014 -0.08777718 0.024888625 -0.07841816 -0.02982864 
0.053033445 -0.06539029 0.086310595 -0.027326023 0.0268434 -0.05704468 -0.03545293 0.03403652 0.04854499 
0.08846368 -0.06332874 -0.09302633 0.0061258744 0.0774023 -0.08570617 -0.02453927 -0.016852528 0.008650003 
0.0905205 0.08143648 0.09338316 0.020033993 0.07010189 -0.013090551 -0.054565605 -0.019759636 0.008644343 
-0.07194472 -0.05385908 -0.070067324 -0.07009333 0.009965083 -0.0071995007 0.045487322 -0.092374675 0.07458204 
-0.0019634266 0.030453542 0.07593353 -0.03335704 -0.018739557 -0.024409374 0.061700262 0.018637657 -0.0119022 
0.091422096 0.00089258235 -0.058220237 -0.0072383266 0.0012677237 0.08747731 0.08572606 -0.09289014 -0.018458264 
-0.09112404 0.025636707 -0.006170991 0.037924103 -0.013495116 -0.004876775 -0.009951195 0.02346452 0.07136983 
-0.09017067 0.09458657 0.039869484 -0.018743804 0.0023817322 0.0967989 0.08549681 0.06498765 -0.05023416 
-0.020515904 -0.08672633 -0.033622414 0.03778483 1.1470256e-05 -0.074942544 0.06270931 0.05653759 -0.094053745 
-0.098682985 -0.0008475894 -0.002129904 -0.014715618 -0.06347361 0.075591095 -0.069608994 0.057274908 -0.044352256 
0.08371291 -0.08213731 0.0977255 -0.06510491 -0.0012859085 0.093075186 -0.042618006 0.08352421 -0.07418945 
0.04081006 0.062494416 0.053667735 0.03607263 -0.036412437 0.0077114697 -0.066377796 0.05547323 0.056919128 
0.010476109 -0.0421132 0.0949914 -0.011344184 0.06062992 0.058506064 0.089938335 -0.077305555 0.0774731 
-0.06537792 -0.004043068 0.0065750806 -0.05086599 0.03287495 -0.097482905 -0.09785685 -0.06563573 0.091639236 
0.07645341 -0.01860598 -0.0016536664 -0.03921638 -0.053892575 0.05546381 -0.0795611 0.0744653 -0.054659605 
0.061088976 0.0013832853 0.030562112 0.004318437 -0.09208762 -0.08370343 -0.084145166 -0.040269792 0.08504418 
-0.047172323 -0.033782147 -0.05927839 0.068135515 -0.024467455 -0.09557695 -0.042882647 -0.024345119 -0.03560209 
-0.062039394 -0.044859275 -0.032971103 -0.08017914 0.09665492 0.012018108 -0.043526396 0.058951043 -0.09934355 
0.021925341 -0.0030310736 -0.043767337 -0.08375437 -0.04058795 0.0066422606 0.087576956 -0.039571315 0.05067526 
0.101755455 0.07352433 -0.061369084 -0.03287716 0.058728453 -0.06680994 0.04855616 0.008128239 -0.04675883 
-0.055411834 -0.03038387 -0.0725727 0.062473863 -0.081191905 0.05586454 0.008786491 -0.069291875 -0.056581803 
0.008253175 -0.066377036 -0.042535778 0.06654548 0.055631496 -0.07021298 0.037794087 -0.03555972 0.0961449 
-0.05329429 0.060666602 0.10151466 -0.036070075 -0.06381064 0.055242613 0.062856704 -0.036606513 0.046645828 
0.041503698 -0.021443106 0.07035292 0.11326815 0.114717275 -0.0070598014 -0.04496911 -0.042714186 -0.056867376 
-0.016399346 -0.050576743 0.005278976 0.036350813 0.018181663 -0.027094303 0.042354036 0.018228823 0.077777945 
-0.004087762 0.035441965 0.06489316 -0.08885605 -0.06702943 -0.034290954 -0.028408373 -0.069264956 0.07595257 
0.05243376 -0.046139132 0.08780778 0.056942344 -0.026616944 -0.014570958 0.018144783 -0.08994441 -0.010896924 
0.06203112 0.065753706 0.079124324 -0.008583378 -0.09137629 -0.035388622 -0.099210896 -0.06081645 -0.08846567 
-0.003348443 -0.01354407 -0.06717569 -0.013813431 -0.028647674 0.072335355 -0.011485159 0.018113336 0.006798181 
-0.09221266 -0.061940894 -0.044906646 0.08863529 0.09317179 0.002826863 0.046644468 -0.03554512 0.087304786 
0.037865676 0.027864525 -0.020141948 -0.09514656 0.06911375 0.006209856 0.012055372 0.03937607 -0.0762088 
0.073011205 0.006393247 -0.09886393 0.0003158393 0.05033399 -0.051747482 0.063972674 -0.0068336967 0.07813512 
0.10014168 0.015545398 -0.00030822217 -0.095821865 -0.10057797 -0.043169454 -0.017905558 -0.008782196 -0.049142074 
0.034934856 0.04274344 0.061287805 0.02738103 -0.068488546 0.01834797 0.021726679 0.047722757 -0.04237615 
-0.06407661 -0.08691129 -0.049598437 0.07931531 -0.029410908 0.058038488 0.0411585 -0.024152713 -0.006735745 
-0.078617334 -0.040799364 -0.017532306 0.04895122 0.06603904 -0.037154235 -0.07172456 -0.011970257 -0.07513194 
0.037363097 -0.0251631 -0.012134208 0.05200334 0.0712818 -0.06326506 -0.03879889 0.08444829 0.0873222 
0.012425984 -0.10896525 0.038418725 -0.0934807 0.015695136 -0.06958392 -0.011883908 -0.066225134 -0.10736859 
-0.013495833 -0.012797709 0.059637412 0.00070443307 0.003530674 -0.069302484 0.06902064 -0.0799698 0.039449323 
0.07347977 0.0059308023 -0.045460135 -0.034579184 0.01733719 -0.10108297 -0.0523166 0.0076144612 -0.034699127 
-0.048641995 -0.041550945 -0.024939876 -0.036730707 0.02418846 0.03658085 -0.09302418 -0.08048406 -0.08653404 
-0.089337364 -0.103793 0.047708075 -0.0833408 0.048136886 0.07427872 0.01690093 -0.056502152 -0.06639712 
0.03984475 -0.025146732 0.026822878 0.006627558 0.064072445 -0.053630244 0.04999385 -0.019378819 0.07094635 
0.05717175 -0.0687545 -0.04992948 -0.03199258 0.041486256 0.019439192 0.06031179 0.0085656755 0.057510357 
-0.0066268346 0.018528834 -0.0022800984 0.03404383 -0.083462164 0.08831233 0.0657795 -0.07244447 -0.021942286 
0.081103206 0.0749675 0.09632056 -0.07160987 0.065344945 0.06354296 -0.09089649 0.010336609 0.087246716 
0.01714821 -0.08674359 -0.053747382 -0.04475673 -0.05456657 -0.047156364 0.0006131079 -0.013176959 0.060299497 
-0.069653414 -0.09232006 0.041310046 0.0341447 0.04697139 0.0053828503 -0.054272134 -0.080354504 -0.07846133 
-0.07422495 0.05209701 -0.09463944 0.0768595 0.0845986 -0.07224155 -0.05791471 0.09727081 -0.07769396 
-0.06292153 -0.03607138 -0.080157526 -0.0020419252 0.07883475 0.025605023 0.10033292 -0.036647182 -0.09817352 
0.04349126 -0.049025025 -0.08444369 -0.08416578 0.06251475 -0.06151145 0.01487757 -0.03869529 -0.068365 
0.092117295 -0.035651915 0.023858078 -0.09464166 -0.0062728133 0.07647298 -0.028891698 -0.011653315 0.09465866 
0.055665106 0.0959702 0.03364721 0.048014343 0.021542424 0.03204122 -0.0594197 -0.042215716 0.025016423 
-0.074585296 -0.008812794 -0.089823544 -0.028728398 -0.046674225 -0.020566113 -0.035507116 -0.05200325 -0.044131685 
0.06993861 -0.042620245 -0.04985596 -0.020997286 -0.029991817 -0.0143506965 -0.034411836 0.064561784 0.060889505 
0.04896422 -0.09289225 -0.06651714 -0.090697825 -0.06848436 0.039772727 0.03972245 0.007739457 -0.021157674 
0.08482007 -0.0057298606 -0.017056663 -0.074729525 0.011987901 0.035813812 0.058462147 -0.09865518 0.06880251 
0.02933014 -0.07241675 -0.06607406 -0.023275357 0.09416706 -0.034539405 -0.09082326 0.009157171 0.028676298 
-0.05222961 -0.07856022 -0.061945427 0.07172796 0.07748804 -0.06795374 0.04348851 -0.047128953 -0.001560829 
-0.023441095 -0.036867004 -0.08805435 -0.05004272 -0.05814849 -0.062209215 0.050346132 0.048981123 0.07700919 
0.04203561 0.05438173 0.08579507 0.06864816 0.07373501 -0.00952403 0.087326236 0.06755899 0.026952952 
-0.01829214 -0.071192555 -0.07878443 -0.028374292 0.074315995 -0.05175356 -0.064684875 0.06373431 0.07978741 
0.07846043 0.02532007 -0.054019447 0.012436163 0.039881416 0.06969706 0.068950616 0.04538119 0.0727395 
0.0560772 -0.032606628 0.05783467 -0.016055806 0.09270294 0.089016095 0.08615819 -0.010811012 0.030530242 
-0.02355512 0.0800087 0.05752795 0.02033361 0.0055664377 0.043268505 -0.08291138 -0.06773424 0.004384167 
-0.01782617 -0.05992334 -0.08019719 0.06346448 -0.08725071 -0.026748005 0.092963755 0.0438173 0.06588426 
-0.08944763 0.081280045 0.082535446 0.093452044 -0.016588718 -0.01968079 0.10132838 0.043506484 -0.034055334 
0.061622523 -0.06995162 -0.095998965 0.07742647 -0.04294697 0.057619594 -0.09875499 0.0678934 -0.07313312 
-0.046935704 0.042791463 -0.030439204 -0.06549782 -0.031988665 -0.013178121 -0.0048505245 0.09030198 0.059133366 
-0.049598392 -0.063452706 -0.08169236 -0.07951549 -0.04654984 -0.042633854 0.005019384 0.0916966 -0.10371854 
0.015625954 -0.0052612484 0.058543015 -0.008219832 0.07635977 -0.009256111 0.054369036 -0.035585813 0.021149466 
0.09242885 0.07277824 -0.10424868 0.008006743 -0.09591284 0.08181253 0.07206819 -0.037480325 0.072343804 
0.028600175 -0.07096751 0.08194418 -0.006614368 0.0019656252 -0.030805755 0.07340944 0.032344107 -0.06564086 
0.051459685 0.0049296925 -0.0033954773 0.0628034 -0.06313044 -0.101188816 -0.045629214 0.0066153035 -0.0020736533 
-0.09084841 -0.06641489 0.09749655 0.06903261 -0.08068369 -0.06413167 -0.10333527 0.048618253 0.046149004 
0.058760643 -0.009540763 0.039317064 -0.06946295 0.03851242 -0.06693656 -0.00841488 -0.069624625 -0.009561789 
-0.030211871 0.02031112 0.0314689 -0.063920036 0.04161172 -0.09752704 -0.053642087 -0.058889806 -0.099487066 
0.051489845 0.05329069 -0.03459632 -0.10231395 -0.10316098 0.0474409 0.07842841 -0.0039450848 -0.08995089 
-0.08018965 0.08149987 -0.057414994 0.058279917 -0.003980032 -0.09961014 -0.12134162 -0.06920625 0.07362325 
0.026389679 0.045860305 0.03490562 0.0019147502 0.024377184 -0.017327162 0.06498206 0.008513507 0.06372147 
0.04358851 -0.04779618 -0.03930674 -0.054189242 -0.089826755 0.087635316 0.0659788 -0.02014568 0.027643172 
0.037388917 -0.0064239684 -0.018520433 0.053841315 -0.055899274 -0.08598958 0.048387975 0.079085946 -0.10352181 
0.017241402 0.0018218114 0.009111874 0.027386617 -0.09931171 0.00016234218 -0.09469171 0.065259606 -0.08991321 
-0.027542923 0.002233677 -0.10288793 0.061959185 -0.037158523 -0.0935203 -0.007243682 -0.06546308 -0.108442426 
0.054941263 0.065009646 0.06493263 -0.0023757184 -0.017042957 -0.04396785 0.013466861 0.020721551 -0.0882968 
-0.016614385 -0.049375422 0.00920473 0.031283736 -0.06874573 0.05453911 0.03561176 -0.011779457 0.04398252 
0.029608373 0.006423572 0.0015852631 0.040290743 -0.018260641 0.05542446 -0.03463289 -0.10092721 -0.10435302 
-0.04484621 -0.04521601 -0.0853116 0.023356048 -0.011402187 -0.093027785 -0.012902592 -0.065724045 0.019429266 
0.05318247 0.020768752 -0.037425436 0.011597988 0.07634971 -0.061333116 -0.05854706 -0.0716504 -0.010584738 
-0.100474425 -0.025920663 0.05249962 -0.04685524 -0.087309614 -0.059092987 0.025370052 0.07248656 -0.08909459 
0.08696244 -0.027018497 -0.08826559 0.04897616 -0.02360424 -0.02100861 -0.029518856 -0.03161703 -0.10064222 
0.053480815 -0.053837076 0.043540668 0.06450591 0.06328296 0.08331266 -0.017423475 -0.07144833 0.09824681 
0.019486079 0.06682011 -0.08922098 -0.09518749 0.0036673232 -0.012839998 0.0122115975 -0.005100938 0.08326885 
-0.09042292 -0.010629537 0.09025797 0.025164306 -0.098824315 0.04385592 -0.029225137 0.04657823 -0.082866505 
0.07335836 -0.09234146 0.053057954 -0.047509942 0.054517157 0.051786233 -0.05057588 0.08045611 -0.08385236 
0.024602918 0.06034269 -0.00848517 0.009840875 0.049570788 -0.06381423 0.042291436 -0.09874284 -0.037033074 
0.06724889 -0.04083831 -0.056159724 -0.049413897 0.046140924 0.021144075 -0.040510315 0.019281538 -0.067850955 
-0.007068705 -0.0716246 -0.0591849 -0.087083034 0.04949139 0.007441084 -0.010588766 -0.06330083 -0.09322823 
-0.020242378 0.03881073 -0.0761223 -0.02628611 0.028668536 -0.072449625 -0.044302925 0.073729716 0.09636473 
0.010068501 -0.02330708 0.0643038 0.031813845 -0.074705586 -0.011314791 0.08972672 -0.014898941 0.07747189 
-0.053342797 0.07388368 -0.067283094 0.030049132 -0.055031374 0.07883928 -0.0359657 -0.09141007 -0.07649317 
-0.06936253 0.08976631 -0.054702044 0.09012169 0.022386152 0.072181 0.049775466 0.034410544 0.03517853 
0.011067297 -0.06759926 -0.024397744 -0.08328017 0.023386916 0.03558468 0.06337129 -0.09601027 0.014558211 
-0.08196051 0.04241823 -0.066441596 -0.060751222 -0.0420674 -0.026060224 0.023759706 -0.08524531 0.0075687743 
-0.027636064 -0.0863063 0.063901335 -0.04637328 0.0060773315 -0.05998751 0.03271078 -0.053873822 0.026563197 
0.022003304 -0.07983715 0.06279324 -0.040680654 -0.06930702 -0.0618286 -0.1056065 0.06885782 -0.01112978 
0.094054826 -0.030854372 0.054797024 -0.07927349 -0.026954649 -0.008026969 0.083662815 0.047643162 -0.021965025 
0.005914311 0.07399613 0.07577588 0.046659727 0.060028933 0.073053665 0.07529738 -0.07142453 -0.044147506 
-0.01934302 -0.058272693 0.071113616 0.0038655573 0.06939229 0.031705417 0.09530606 0.06651349 0.040847037 
0.009309041 -0.08951954 -0.06338772 0.09467413 0.06987789 -0.09817251 0.019865658 -0.04643045 -0.06619054 
-0.050264373 -0.061352234 0.030271282 0.042250596 -0.064567156 0.051870503 -0.02152351 -0.001754395 0.044370335 
-0.04840184 0.07625675 -0.059279148 -0.0130038345 -0.0054731406 0.014255566 -0.025821097 -0.0869987 0.07041915 
-0.045836724 -0.07091775 0.022028718 0.06044935 0.010016259 0.028918074 -0.048543748 -0.08388899 0.06505255 
-0.032970253 -0.078595 0.09404248 -0.060660027 -0.02178483 0.061615266 -0.042160183 -0.070912555 -0.06286041 
0.035733875 0.04918163 -0.04651055 0.059870705 0.08420897 0.08536706 -0.081314735 0.054675438 0.06505927 
0.094198294 0.035489578 0.046105098 -0.06542943 0.115083925 0.0412404 0.045114003 -0.0820633 -0.07526571 
-0.08659517 -0.031761616 0.0028288648 0.080711365 0.05155769 -0.012623004 -0.100097604 -0.06002621 -0.06629947 
-0.037527375 -0.04929418 0.0046397615 -0.041753728 -0.00064698514 0.08572811 0.02678143 -0.0062597585 -0.0777212 
0.1020047 0.07699448 -0.0536396 0.09784334 0.08085867 0.06198586 -0.05006959 -0.050345093 -0.09369137 
0.0052972506 0.054760244 -0.0527691 -0.07729906 0.0040410855 0.030319795 0.07734774 -0.078615025 0.0044655856 
-0.04428395 -0.05509144 0.08365296 0.050832603 0.045916338 0.055727646 -0.036191083 0.038224336 0.07891785 
0.039548106 0.058733836 0.048770156 -0.0147956405 0.08599684 -0.08051903 -0.059121974 -0.0033338706 0.11454374 
-0.09787027 -0.06653685 0.08536271 0.06957584 0.092019096 0.026543442 -0.06682744 -0.011878824 -0.03751367 
0.050005518 0.084875606 -0.066061094 0.022585291 -0.072395645 -0.07617085 0.06467113 0.06740656 -0.09251707 
0.086997546 -0.025446428 0.0958439 -0.075216964 0.013385383 -0.09931239 -0.09583932 0.09584938 0.016056888 
-0.028066263 0.022252377 0.008160386 0.04618953 -0.023504712 0.038393408 -0.04471973 0.02971365 0.06517314 
-0.09760197 -0.09830031 -0.07337385 0.06475664 0.03244386 -0.08079604 0.04469504 -0.054502644 -0.09239627 
0.10232159 -0.049977172 0.008678058 -0.06607068 -0.010134734 0.08811304 -0.048312 0.081355385 -0.10347229 
-0.06516842 0.052616797 0.017345335 -0.026514241 -0.093237504 0.035210997 0.022847133 0.07053064 0.04698873 
-0.015663635 -0.100279815 -0.09608882 -0.010902429 0.059019648 -0.054204494 0.07549434 -0.087049775 0.0018589761 
0.0056799133 0.017018793 -0.08493381 0.029239258 0.052959718 0.08082547 -0.10421252 -0.047166184 0.033162165 
0.057612106 -0.018253656 -0.09248532 -0.08991271 0.044544797 0.08024127 0.08596135 0.055712007 -0.03197802 
-0.001037375 0.043961134 0.0578681 0.025226563 0.038485866 0.08538123 -0.086980514 0.031778503 -0.08177808 
0.056524307 -0.011109447 -0.07611502 0.06979326 -0.01534137 0.07651673 0.014072732 -0.02978284 -0.0048253415 
-0.06175462 0.03212653 -0.10126832 -0.06473042 -0.104892984 -0.011700841 0.008796382 0.07550806 -0.015327842 
0.040419597 -0.017800178 0.001658853 -0.03934258 -0.05659856 0.023376875 -0.06749776 0.08258807 0.0398829 
-0.030299298 0.058832742 -0.07342569 0.06432881 -0.020185716 -0.0409679 -0.079383105 0.0406136 0.07980724 
-0.026973568 0.0852754 -0.09144462 -0.08255444 0.038332835 0.038389266 0.012947058 -0.08211753 0.08361706 
0.09606719 -0.019195024 -0.06813258 -0.029344184 -0.067021206 0.08286861 -0.06964616 0.004633755 0.07636698 
0.059435632 -0.02161733 -0.010683465 0.031044053 0.059498254 -0.085410975 0.10416682 0.0044457247 0.0947327 
-0.04029163 0.07890547 -0.009198238 0.08961749 -0.052407052 0.06901391 0.060869787 0.09852784 0.085633874 
0.050102506 0.081592344 -0.08571898 0.09812081 -0.033266563 0.095473334 -0.09397902 0.0074609257 0.06601199 
0.07125863 -0.040812295 -0.016735202 0.024874104 -0.09880163 0.020167515 0.11044711 -0.023613743 -0.03612723 
0.047775213 0.084481716 -0.005086656 -0.030325945 0.04393405 -0.073159054 -0.07745959 -0.016466953 0.100250974 
-0.08501402 -0.0012292607 -0.040436625 0.08708858 -0.0024316267 0.08012319 0.06804464 0.038994092 0.092862144 
0.024215711 -0.065496236 -0.06991239 -0.062181495 0.07580655 -0.04024814 0.075554036 -0.092854016 -0.010970813 
0.06850821 -0.03582352 0.06850758 -0.044739008 -0.03692138 0.019517388 0.018065782 0.087299496 -0.054556854 
-0.032187764 -0.05175437 0.081464306 -0.02199971 0.016250232 0.0049922206 0.04168526 -0.03558434 0.0020764142 
0.017269773 -0.08203891 -0.0027646439 0.098990135 -0.06971062 0.0081132455 -0.07706935 0.108913325 0.07910207 
-0.08553091 -0.026331086 -0.07282259 -0.01386644 0.054090254 -0.08019597 0.022146609 0.058237493 0.008327743 
-0.036755964 0.04535592 0.049462635 -0.07037132 0.057981197 -0.04934056 0.012948229 -0.09066785 0.06586581 
-0.01598225 -0.059755184 0.08098048 -0.047601685 -0.093208514 -0.065958336 0.08312043 -0.09489088 -0.039079975 
-0.098703645 -0.017176094 -0.05308575 -0.08903382 0.09462853 0.008278432 0.09495346 0.06269303 -0.054906223 
0.006729355 0.025304032 0.07362664 -0.010171005 -0.012639022 -0.04549986 0.049741752 -0.059125092 -0.06234908 
0.10241107 -0.0016540128 -0.0069444086 0.040589146 -0.041941196 0.08556431 0.06582784 -0.08311715 -0.084354386 
-0.038176782 -0.07211971 -0.06439088 -0.07700911 -0.10249293 -0.104305975 0.035438642 -0.08518622 -0.05852775 
-0.066960566 0.053230207 0.019566793 -0.037718236 0.06832956 0.076308995 0.0066557913 -0.07134715 0.0050532506 
-0.019933375 0.06585029 0.058591764 -0.09220949 -0.015981218 -0.06847727 -0.009938924 0.051729754 0.08851512 
0.00462719 -0.037206665 0.000735558 0.019064099 -0.03432069 -0.07098406 0.020818332 -0.09479809 -0.006498194 
0.07941213 -0.047402978 -0.09182878 -0.032395765 -0.09038257 -0.04355123 0.05672123 0.06899757 -0.0051231873 
0.09131801 -0.0956466 0.016740356 0.07909216 0.06126476 0.08672605 -0.046356395 -0.019494237 0.008765301 
-0.08707578 0.07403629 -0.06661449 0.0391394 -0.01888228 0.020859344 0.024687838 -0.10134902 0.07788244 
0.09518732 -0.08958783 0.024510456 0.09567699 -0.09636191 -0.041642092 0.09111454 0.03154367 0.041993856 
-0.0027834664 0.023987167 0.04306257 0.0590519 0.0462043 -0.090031534 -0.09450704 0.0433742 0.002925492 
-0.080721706 -0.05870808 0.046591036 0.074002594 -0.04367623 0.07982254 -0.025421076 0.094171524 0.0332328 
-0.051981278 0.090816155 0.01667995 -0.049276277 0.05221106 -0.0024239845 0.091165595 -0.06375483 -0.024192492 
-0.030454077 0.017012002 0.08081987 -0.078737326 -0.007585245 -0.084560275 0.105071895 -0.07715274 0.043450225 
0.00036718644 -0.097238034 0.013049228 -0.066447616 -0.01869898 0.026793797 0.01238478 -0.09123919 -0.018206207 
-0.081952006 0.011158935 -0.051000636 -0.04753303 -0.061252695 -0.09317746 -0.03549854 0.03160356 -0.08774145 
-0.061239447 0.08388587 -0.06395044 0.0495627 0.0351222 0.05877825 -0.015621876 0.076569095 -0.05218019 
0.091320604 -0.04676008 0.08441707 -0.02483604 -0.003179881 -0.021009533 0.083302 -0.00807572 -0.0155892875 
-0.06729342 -0.00048723276 -0.0026119296 0.023301244 0.018718215 -0.020177903 0.014082441 -0.002010948 -0.04103101 
0.02549875 0.027300112 -0.08518242 -0.08272802 0.055692337 0.001981995 0.08887963 -0.08464274 0.06431182 
-0.01885326 -0.04438565 0.091868855 0.09611075 0.081218846 -0.04335965 0.10473663 0.05907516 0.08540392 
-0.070376664 -0.07996523 0.021647396 -0.075150385 -0.09081438 -0.052558564 -0.09196415 0.028866855 0.08729237 
0.05356245 0.05418259 0.07384616 0.08925142 -0.070932366 0.07408174 -0.03421025 -0.031367756 0.0923629 
0.0986949 -0.00019645595 0.0111803245 -0.0841347 -0.064009696 -0.02539383 -0.08670112 -0.06247886 0.053198226 
0.049641557 -0.061744448 0.016314367 -0.03639944 -0.04009098 0.017381543 0.014965948 -0.087199 0.049586274 
-0.06663218 0.015250005 -0.056979775 0.08690663 -0.015812438 -0.030869413 -0.02456978 0.013576238 -0.09088841 
-0.020340495 -0.041774083 0.08969257 0.08793742 -0.051730216 -0.06134681 0.03540691 -0.04941445 -0.088942096 
0.024714038 0.09290871 0.07891043 0.09139187 -0.06354736 0.054441825 0.102266945 0.034405865 -0.03244476 
0.072084054 0.06368798 -0.020309612 -0.04689619 0.029171303 -0.051799454 0.07390645 0.10281866 -0.02958658 
0.07508946 0.015292163 -0.015187534 -0.0087495735 -0.11106539 0.02279301 -0.09395302 -0.08149637 -0.09867323 
-0.042938117 0.09530418 0.089672305 -0.023057558 0.08355415 0.030227005 0.07446683 0.09077251 -0.039793562 
0.07858992 0.014911767 0.034889985 -0.048450176 -0.09714153 -0.012148698 0.04997301 0.020628236 0.081383206 
0.01842575 -0.0916123 0.08628255 0.047813203 0.055017967 0.035122003 -0.069772944 0.07940886 0.0676889 
0.009589092 0.061748374 -0.012750392 -0.048655268 0.07485049 0.054642476 0.042536546 0.040646844 -0.027879464 
0.104040526 0.068451814 0.07652454 -0.08912819 0.1024806 0.09171127 0.042165365 0.1005421 -0.051766362 
-0.014827931 0.031799674 0.097707145 0.046060126 -0.058175337 -0.017685268 0.031820867 0.057307303 0.065486856 
-0.03828008 0.07782331 0.009645297 0.043411575 -0.057910055 -0.06420462 0.09250329 0.03511874 -0.043127887 
-0.061039884 0.030348975 0.016356109 -0.0021757507 0.046094216 0.026122782 0.024252666 -0.062480986 -0.03827144 
-0.03366038 -0.07785486 -0.09684284 0.073617324 -0.035338577 0.041716296 -0.06494694 -0.07135648 0.09415204 
0.09249928 -0.042723563 -0.0030412015 -0.026818475 0.01761277 -0.07386429 -0.015751809 -0.010165375 -0.07749846 
-0.02718157 -0.024014799 0.09711949 -0.020091537 0.054731045 -0.06552396 0.04988283 -0.074720085 -0.067373954 
0.028357828 0.040531084 -0.0069143428 0.063561864 0.006911604 -0.054515556 -0.06194283 -0.08741384 -0.09098005 
0.0022925802 0.04329414 -0.008056259 0.017309971 0.020206923 0.020392068 -0.0130142225 -0.06521609 0.013226397 
-0.04955977 0.08130472 0.07430581 -0.012658392 0.10419396 -0.033951603 -0.059906658 -0.01151925 -0.00475844 
-0.010494382 -0.015301415 0.040848155 -0.040483616 0.07311861 0.033672478 0.06577301 -0.024878375 -0.04714987 
-0.064328656 0.07021978 -0.022798946 0.04608828 0.05077672 0.062031623 -0.07040429 -0.0343557 -0.08437102 
-0.057130314 -0.097916014 -0.07113476 0.08898625 0.05437506 0.022061931 -0.00023579062 -0.036095142 -0.09798052 
-0.04206885 -0.06727958 -0.04165024 0.09370066 -0.021170136 -0.050020788 -0.06002 0.09568124 -0.011088491 
0.08577635 -0.0662303 -0.035894446 -0.013847891 -0.04388149 -0.058690574 -0.09943865 0.07135692 -0.060001273 
0.059250597 -0.035975996 -0.10198544 -0.009836899 0.04275602 -0.0035314842 0.0030325525 0.011976864 -0.04237066 
0.016706029 -0.036860667 -0.038392738 -0.013961883 -0.08415625 -0.066329546 0.021563621 0.023267126 0.07696901 
-0.026735805 -0.08131229 0.033124052 0.07534834 0.04067842 -0.03403153 -0.099666856 -0.0837788 -0.014555779 
0.09114215 -0.089320995 -0.06023998 -0.0129047735 0.03611098 -0.09824908 0.06957371 -0.069024354 -0.097684406 
0.020267263 0.015748074 -0.093761355 -0.074769795 -0.053797875 -0.08402713 -0.021512164 0.006248386 -0.058441006 
-0.057192557 -0.022544913 -0.026492275 -0.061781216 0.0386583 0.06615774 0.07534219 0.0621043 0.033741042 
0.015574015 0.00764129 0.05548173 0.06844987 -0.09334704 0.051272616 0.058827363 -0.0008035978 -0.054098763 
0.041238833 0.074324615 0.058911987 0.05493397 -0.018236095 -0.055590943 0.022940129 0.075145476 -0.0023209415 
-0.10094078 -0.03586986 -0.0031490913 0.047428437 -0.057594188 0.015858207 0.03578092 -0.0797834 0.034782164 
0.08813974 -0.0294229 0.027385289 0.087073706 -0.047740545 0.03669582 0.0040050833 -0.0843713 0.058174964 
0.058115833 -0.04284888 -0.07146602 -0.0050209705 0.07902832 0.07969225 -0.050871674 0.016618595 0.057697233 
0.026017098 -0.07555066 -0.019495776 0.068394765 0.07952417 -0.009323958 -0.0098717585 0.058675226 -0.013292132 
-0.05003528 0.07265702 0.085053936 0.09670819 -0.07618438 0.040997595 0.029774776 0.04814366 0.021474589 
0.063151315 -0.036687333 0.04063247 0.085225865 -0.10129353 0.021838654 0.04966268 -0.0060292277 0.088965036 
-0.056296613 -0.031653706 0.04738111 0.06690926 0.029035788 0.0031148265 -0.10406196 0.040188257 -0.04729911 
0.017202197 0.07002469 0.030814884 0.036841363 -0.036920078 -0.10034119 -0.028678922 -0.0716428 -0.06311107 
0.09850331 0.09869747 -0.0014844525 0.10159592 0.08458532 0.031641036 -0.050138343 -0.066797055 0.03329065 
0.094064996 -0.051856276 0.008913437 -0.021162285 -0.039103523 0.014685773 -0.044362556 0.095043674 -0.09244066 
0.06791376 -0.050955486 -0.090470694 0.041029315 0.09180158 -0.080846235 0.102494426 -0.041114714 -0.09082927 
-0.051510964 0.046771247 0.036698174 -0.007990925 -0.0160326 -0.01230974 -0.03796674 0.086373776 -0.06141464 
0.0014632497 -0.06982886 -0.08372469 0.053084627 -0.0815734 -0.045249365 -0.09472968 -0.07499127 -0.09149241 
0.036638223 -0.0524455 0.07683926 -0.02551612 -0.07187584 0.0059263026 -0.09509855 0.035170794 0.06423351 
0.1003989 -0.08544789 0.07848083 0.044808008 0.012695363 0.1019839 -0.08798137 0.03428257 0.044955395 
-0.023145773 0.043905485 -0.04016088 0.042117897 -0.0058520543 0.021669462 -0.08637365 0.09563091 -0.016350511 
-0.10248027 -0.006973909 0.089257345 -0.044163574 0.028028924 0.072883375 -0.08445487 0.002790845 -0.017780572 
-0.069787584 0.07867291 0.0108403545 0.062811054 -0.0816943 0.021674933 -0.07926756 0.03593305 0.066385955 
0.07727937 0.06574363 -0.07770391 -0.03613801 -0.0897312 0.05939738 0.0647049 0.101924606 -0.007931345 
0.03686076 0.06810009 -0.056520186 -0.035253663 -0.06895921 -0.07905477 0.06556249 -0.019656673 0.07440818 
0.076486036 -0.009051321 0.022545151 -0.06305129 -0.0804997 0.008032025 -0.03066979 0.08290477 -0.09365464 
0.013774542 -0.06130151 -0.08737109 -0.040001415 -0.026532456 0.07369942 -0.06499524 -0.020272288 0.08956129 
0.0019457057 -0.025735434 0.07767327 0.05853859 -0.07512114 -0.053716995 -0.07832349 -0.05696921 0.0794194 
-0.04378791 0.0802971 -0.0024123688 0.027829299 -0.08721557 0.057232767 -0.057383716 0.03923382 0.057718616 
-0.072321914 0.029618476 -0.05753246 0.09965897 -0.008578161 -0.067316234 0.054817975 0.071670055 0.06804282 
-0.029492252 0.096282385 -0.014983076 0.0034797892 -0.05957542 -0.07098696 -0.006884707 -0.060758546 -0.07227899 
0.03207755 -0.034495667 -0.022130951 0.08190761 -0.031432576 -0.07350384 -0.08138143 0.102001704 0.064651735 
-0.021311527 0.074577846 -0.06376536 -0.008396081 0.081028365 -0.07750441 -0.043808173 -0.06056972 0.016673148 
-0.08362525 -0.0060733464 0.033027034 0.007670709 0.10316698 -0.005951151 -0.08640389 -0.06883193 -0.013975965 
0.09957746 0.021780813 0.09510001 0.0381159 0.036057346 -0.04287954 0.010340754 -0.002030367 -0.047353644 
0.048731502 0.08232822 -0.049961366 0.02734379 -0.06908418 0.0814217 0.07276734 0.02614728 -0.016092412 
-0.0013133149 0.05535829 0.036592573 0.0305766 0.081194974 -0.0515627 0.0043052523 0.03539316 -0.017300045 
0.046837512 0.016681189 0.106160626 -0.026776707 0.06513329 -0.08230787 0.075046554 -0.00025621356 0.099904485 
0.08282723 -0.0058672135 0.005136807 -0.086016014 0.05511543 -0.015667176 -0.067819685 0.04292092 0.048835672 
0.035443865 -0.08956924 -0.042255104 0.024019228 0.0757264 0.08033438 0.08065833 -0.0063600237 0.022658968 
0.09370628 0.01363873 0.07753888 0.02666882 -0.0045193583 -0.00709921 -0.029176978 0.056696508 -0.06718977 
-0.08338078 -0.031138912 0.09556119 -0.06443208 0.082929224 -0.07000841 0.017597593 -0.011068491 0.019994453 
0.010061358 0.08092154 -0.03716581 0.010250795 0.056756444 0.09855279 0.079365335 -0.030791678 -0.10187138 
-0.04780504 -0.030735312 0.014512007 -0.043914337 -0.077193245 0.02094627 0.094688945 -0.075671285 0.06353453 
0.059383463 0.07644353 -0.047094297 0.0129169505 0.033340335 0.013402067 0.10174683 0.013676927 0.06856098 
0.014649144 0.08138443 -0.055174362 0.002626137 0.048802823 -0.02176762 -0.07834396 0.059941873 0.058634076 
0.006087774 0.07738813 -0.035830308 0.07114433 -0.073117815 -0.06945865 -0.03302975 0.09550253 -0.06559078 
0.09861243 -0.0031648139 0.043602098 -0.07938077 0.05313922 0.02057748 0.0022381102 -0.052033156 -0.07251274 
-0.006973352 -0.06296697 0.054040723 -0.058052536 -0.024973067 0.049105942 0.049367923 -0.062487703 -0.0007559556 
0.024515923 -0.06656213 -0.039338443 -0.06895563 -0.026363844 -0.08606349 -0.03072617 0.028619662 0.020995405 
-0.035374437 -0.055515442 -0.043501165 -0.08578189 0.044606354 -0.031364825 -0.101195164 0.08294102 -0.09698538 
0.0071618655 0.008307495 -0.04246929 0.035524882 -0.017944774 0.040805127 -0.009120362 0.031771384 -0.046699043 
0.00424279 0.013144321 0.044844568 -0.045110658 -0.10076127 0.054202277 -0.009047414 -0.05047108 0.03318405 
-0.032407355 0.06657988 0.035915885 -0.038359463 -0.08282509 0.056129582 -0.07659306 0.047008306 -0.04896775 
0.04323277 -0.08032987 0.07771979 0.046301235 -0.06975639 0.07664255 0.007344269 0.0030068439 -0.08744278 
-0.102794945 0.05607812 -0.10324044 0.08954688 -0.038841773 0.026928907 0.004588536 0.04960276 0.08470412 
0.020870384 0.024552092 -0.066913016 -0.09735896 -0.1015816 -0.025875254 -0.076452956 0.05866864 -0.06447269 
0.09533868 -0.08870661 -0.00953615 -0.045925565 -0.020679412 -0.08386494 0.09112257 -0.10215849 0.057960052 
0.07064831 -0.071826935 -0.08668041 -0.025200779 -0.063381225 0.012883749 0.03602506 -0.05046746 0.05554987 
-0.050456025 -0.06794398 0.05986728 -0.03017918 -0.0763781 0.055215523 0.0018066893 -0.07299463 -0.041796166 
-0.032720607 0.030499263 -0.020583853 0.07519057 0.01861072 0.009402303 0.07771123 0.01925806 0.047684964 
-0.067451075 -0.051595148 0.064106405 0.08613805 -0.02690367 -0.06667506 -0.08385944 0.09788115 0.0027427154 
0.053170845 -0.09619929 -0.07675392 0.042269062 -0.067728736 0.042106375 -0.093579315 0.065546066 0.029680403 
-0.041719317 0.09601273 0.048758335 0.0060730036 0.0015479275 0.061532553 0.082045995 0.022536809 -0.063117094 
-0.102273054 0.017628005 0.0008226678 0.047043007 0.007166566 0.08515778 -0.021183725 -0.052336775 -0.012771606 
-0.10214022 0.10257265 0.022888744 0.013509442 0.079621814 -0.022312788 -0.047785055 0.09677466 -0.0092961695 
0.032079294 -0.021341762 -0.0066255666 -0.049142934 -0.008607477 0.07379738 -0.05203281 -0.07436962 0.048291378 
0.045996282 0.03408377 0.09135398 -0.053175885 -0.051415857 0.0011388885 -0.028985098 0.0022112168 0.08106257 
-0.013910016 -0.09510334 0.04928992 0.008554752 0.069834284 -0.015125089 -0.032776307 0.08383757 -0.04953387 
0.009882911 0.07572771 -0.026680673 -0.07804414 0.029415911 0.10043672 -0.06838114 -0.08585137 -0.036065448 
-0.065495566 -0.046512213 0.08033477 -0.024109496 -0.06995224 -0.035329353 -0.018566122 0.001547249 -0.013984158 
-0.10105392 -0.07107695 -0.006528271 0.043070585 -0.055292163 -0.029668754 0.005809878 0.06092932 0.07969034 
-0.048818517 0.06367593 0.058907576 -0.072588876 -0.07732386 -0.023221927 -0.07669856 -0.05660727 -0.09756589 
-0.011571853 -0.10702359 -0.0658819 0.009473852 -0.045958877 0.033094335 -0.046959568 -0.00074790587 0.040253133 
-0.020430896 -0.025180697 -0.07706036 0.07955242 -0.041473467 -0.07874143 0.07105163 -0.0697753 0.08544851 
-0.06370002 0.07874181 0.05230605 0.04690814 0.06108059 0.0045823245 0.03166673 0.006758046 0.004557533 
-0.03423866 0.07521525 -0.08122823 -0.09718981 0.010479466 -0.017788269 0.024374364 0.04279879 -0.09774456 
-0.032956682 -0.08661025 -0.055976536 0.07378194 0.0055866116 -0.021202525 0.060320154 -0.026247645 0.061228205 
0.007665224 0.030625101 -0.063821025 0.06802774 -0.06286568 0.08790322 0.049902923 0.017805295 0.061326437 
0.052884113 -0.023191528 0.009795298 -0.030502774 0.014496379 -0.05322544 0.04081286 0.053748388 -0.008187694 
-0.048320957 0.00022024983 -0.08592503 -0.0829153 0.016068624 0.040566485 -0.04563169 -0.02685398 0.09437482 
0.07379249 0.089461125 0.044576142 -0.10041421 0.01624184 0.08852747 -0.07115227 -0.079933554 -0.053361423 
0.016999563 -0.062205583 0.037985556 0.096762806 0.045033384 0.06952044 0.026648235 -0.030511852 -0.0097626615 
-0.037829943 -0.03290952 -0.076135926 0.082834594 0.026621956 0.030433288 0.065285265 -0.0027359768 -0.016500508 
0.010708281 0.07043681 -0.08179719 -0.037930943 -0.07717833 -0.09924418 -0.06636979 -0.0052659735 -0.029293811 
0.049586643 -0.060249295 0.08693423 0.0074256905 0.047122996 0.04074063 0.049477376 -0.041618653 0.06451917 
0.04443875 -0.027031418 -0.070246726 0.080211915 0.045310836 -0.0847657 0.033418406 -0.07311256 -0.009731751 
0.101228066 0.0239641 0.036683187 0.0083733555 -0.0053512463 -0.02887398 0.025801476 0.0296118 -0.07257549 
0.021902254 -0.0728547 0.06790629 0.041962482 0.038257763 0.10138789 -0.072221525 -0.09843797 0.097129196 
-0.060535964 -0.05767669 -0.06359637 -0.017882798 -0.065160446 0.048701957 0.017990809 -0.05782414 0.0039770305 
-0.08017309 -0.0009176029 0.035337433 -0.09606108 -0.094738394 -0.09003612 0.043062206 -0.064316325 0.06985192 
0.03565049 0.08631043 0.04691698 -0.1000609 0.050399344 0.005804955 0.0042842287 0.085876696 -0.053691342 
-0.022359256 -0.05144768 0.09700552 0.012411454 -0.0130191455 -0.09391579 -0.039048333 -0.029901737 0.03738596 
-0.02257988 0.040613864 0.041229904 -0.013792998 -0.08230249 -0.055221744 0.09523609 -0.0056250067 0.0272058 
-0.088866755 0.09402654 0.06613683 -0.03678195 -0.04170877 0.036827546 0.06631034 0.04740568 0.0015439411 
-0.06739733 0.07768998 -0.09445292 -0.04184109 0.06714929 -0.052434128 -0.05722827 -0.018743856 0.05903116 
-0.06765234 -0.05512339 -0.003993549 0.015506094 0.0071017407 0.044795312 -0.05132178 -0.065607674 0.031194085 
0.107555136 0.013344951 -0.016790923 0.09057323 0.052051507 -0.0045955433 -0.08227358 0.08947001 -0.040666547 
0.014206623 0.029475661 0.06364965 0.057316296 0.026815686 0.06437127 -0.099708356 -0.056634717 -0.047970474 
0.09235699 0.07854293 -0.07174544 -0.07287202 -0.07256841 -0.031286135 0.0697181 -0.08032547 -0.058430757 
-0.016340598 0.043683242 -0.025395231 -0.0037201599 -0.047267433 0.08342384 -0.059633248 0.10643323 0.02562862 
0.090214275 0.0941701 0.098350435 0.028530885 -0.051820196 0.00793384 0.08079484 0.061837904 -0.08591241 
0.050187748 0.069496915 0.06956983 -0.007678428 -0.054052 0.08651198 -0.007608053 -0.08511066 -0.060049675 
0.04100233 -0.037194252 -0.056297045 0.022949243 -0.093606874 -0.05625038 -0.015465826 0.08873901 -0.048171647 
0.0058066207 0.00871451 -0.07134026 0.034757182 -0.06862872 0.07627996 -0.09443677 -0.04000012 0.07030893 
0.0065970444 -0.06258275 0.028079426 -0.006115634 0.07912014 -0.060186747 -0.06869312 0.03920609 -0.06625034 
0.015123511 -0.0416217 -0.013949308 -0.06177013 -0.0627726 0.012205945 0.029701272 -0.07253929 0.0012631331 
0.03540153 -0.058757618 -0.02506899 0.059311975 0.0030866368 -0.007547514 0.0479216 -0.05274002 0.093878366 
0.015963504 0.050168134 0.03272615 -0.053405367 -0.059461396 0.073457345 0.026796743 -0.04953971 0.049836196 
0.03523428 -0.09262584 0.064860485 0.09341721 -0.08805236 -0.059856493 0.010882696 -0.009640322 -0.021280028 
-0.040070444 0.07011592 -0.012104816 -0.037819613 -0.09479428 0.015831813 -0.033005495 0.015918283 0.053059828 
0.096112266 -0.03523702 0.026095869 0.06660581 0.0403713 0.07056393 -0.04107587 0.0669816 -0.05494307 
0.09608745 -0.054864105 -0.017019708 -0.0678961 0.06641065 -0.057042357 0.005102183 0.0625385 0.09840663 
-0.051758967 0.08659314 0.039895218 -0.031328026 -0.05782388 0.10133986 0.06520886 -0.020914374 0.08074007 
-0.054234106 0.05239828 0.052862234 0.087128066 0.021897234 0.039450966 0.084679306 -0.07838116 -0.099103495 
-0.013714267 -0.094764985 0.08729694 0.0526486 -0.029936964 -0.046865292 -0.079647414 0.063312516 0.02288629 
0.07866627 0.060965493 -0.08479059 -0.012651024 -0.02026766 -0.0021446075 -0.019988792 -0.037631787 -0.08596683 
0.026256971 -0.09495617 0.0079526715 0.06348052 -0.10156653 -0.0029001592 0.0304464 0.019851238 -0.04530836 
-0.08948433 -0.0009545997 0.019028068 -0.0075909826 -0.012918367 -0.08566261 -0.020874336 -0.08947228 -0.062440794 
0.04432202 0.07714395 0.043156672 -0.091252714 0.04542408 -0.026257727 -0.08496376 -0.033483483 0.021374127 
0.0751936 0.09343959 0.063055836 -0.0059049944 -0.074585184 -0.055223394 0.022644585 -0.074361406 -0.046412196 
0.034497894 0.09545722 -0.0018877434 0.034028158 -0.08458949 0.024953624 0.055882543 0.024600554 0.018866632 
0.015886977 -0.0085380385 -0.08158899 0.026464444 0.07143808 -0.07878111 0.039238527 0.012564618 -0.0932874 
0.07755687 -0.04447415 0.06886527 -0.061357584 -0.09738215 -0.044570383 0.10095759 0.07887686 -0.008744277 
-0.07412304 -0.03665084 -0.07303377 0.052592196 0.082394265 -0.08094717 0.06246611 0.04373478 -0.04521751 
-0.000909141 -0.04132032 0.06054498 0.04954579 0.09311604 0.072670676 -0.020961378 -0.098028906 0.059899695 
-0.015133624 -0.024770854 -0.09862657 -0.084104694 -0.07084082 0.00096472166 0.0063067814 -0.006432492 -0.0356851 
0.016946178 -0.0867926 0.0012153958 0.020637084 -0.10250721 -0.06860786 0.079268195 -0.08101837 -0.009447095 
-0.06907448 -0.06808982 0.061275348 0.0066019585 0.052300315 0.060974445 -0.08323273 -0.02680312 -0.079507574 
-0.03301802 -0.06540113 -0.07389237 0.078406915 -0.08795652 0.05133943 0.088323675 -0.094805375 0.0099926125 
0.06848068 -0.039400622 -0.07256078 -0.009455077 0.074935295 0.0688227 0.049970888 -0.046187505 -0.0037334897 
-0.100056574 0.0012088564 -0.011157179 0.04525032 0.09857398 0.016670574 -0.08794806 0.03262411 0.03906442 
-0.0050618537 -0.021856423 -0.03672447 0.056343097 0.033418477 -0.1040329 0.04576116 -0.027397556 0.049699202 
-0.10422881 -0.032029793 -0.029744532 -0.0003785002 -0.017264176 0.093170114 -0.044337235 0.052244846 0.016480435 
0.04281423 0.02690561 0.060621668 0.052009817 -0.09434356 -0.05111015 -0.022498135 -0.004043762 0.08923176 
0.08281786 0.012432197 0.023248753 -0.018145178 -0.041499443 0.061251782 -0.09206918 -0.07825004 0.0648607 
-0.095019974 -0.05614215 -0.09340448 0.061646163 0.09126589 -0.031168072 0.069493294 -0.073785625 0.018700987 
0.019263651 0.046488546 -0.086103804 -0.07235879 0.0030736055 -0.065614246 -0.09486432 -0.06259396 0.05837186 
0.06309005 -0.09630286 0.0046769134 0.015107483 -0.030263232 -0.062174615 0.078789145 0.021601556 -0.038754646 
0.03500315 -0.037055086 0.07200442 0.05211409 0.044924382 -0.0058974563 -0.098599516 -0.035235777 0.07789742 
-0.032572925 0.06648251 -0.063287355 0.06634086 0.04121278 -0.09591019 -0.02741998 -0.09553064 -0.060632516 
0.057521384 -0.021010965 -0.070199326 -0.069977015 0.044239264 0.084294885 0.00886349 -0.0010770309 -0.10518532 
-0.022244688 0.031586025 0.049699876 0.091154575 -0.06634904 -0.025524333 0.009529985 -0.07451545 -0.06194812 
-0.04105073 -0.06447482 0.059861057 -0.053282328 0.09059721 0.09281653 -0.02754686 0.04245833 -0.033833276 
0.094309784 -0.011212068 -0.067861594 -0.078487225 -0.10076436 -0.097331226 -0.0044986284 -0.08503179 -0.094399445 
-0.08228124 0.0026671428 -0.08821981 0.055006023 -0.103837274 -0.03755845 0.056894235 0.09440866 0.03363128 
-0.012664557 -0.09294595 0.010673586 0.0011884498 0.079307646 -0.00093875016 -0.09687489 -0.095225595 0.086081706 
-0.09316314 0.06162653 -0.0037925174 -0.06824735 0.018764025 0.05314791 -0.028822385 -0.005881095 -0.03539913 
0.009926538 0.080894224 -0.056196805 0.028876098 0.049939107 0.095797986 0.06672355 -0.05112326 -0.07185059 
-0.048856203 -0.0038817201 -0.081672914 -0.009673434 -0.0732327 -0.092543684 0.09613859 -0.047794044 -0.048790637 
-0.044965073 0.02126587 0.04757803 0.024878804 0.08827596 0.06964021 -0.038984608 0.09371364 0.013716309 
0.092256054 -0.069109656 -0.07534326 -0.042933308 0.03629612 0.08787996 0.021795882 -0.06933733 0.079051 
-0.08210363 -0.09766601 0.032875992 -0.07459987 -0.019776892 -0.010431426 0.03369899 0.026500177 0.08473669 
0.08125349 -0.052542318 0.03284213 0.08949548 0.031793807 -0.06622361 0.08987511 0.034781795 0.069401145 
0.0371741 -0.10222464 -0.030106442 -0.019829499 -0.020299753 0.018793125 -0.04041051 0.046927996 0.07040039 
0.00085671066 0.0071217506 -0.044152435 -0.07361398 0.022203615 -0.0006526913 -0.06712401 0.04957928 0.06304026 
-0.062356234 0.020884447 0.07407825 -0.016163215 0.07082668 0.082050495 0.05999418 0.008018669 0.031408604 
-0.08399968 0.07066889 0.029219657 -0.021973914 -0.088610314 -0.00074979855 0.0452978 -0.10080518 -0.006787726 
-0.10286876 0.08770744 0.059937965 0.0957106 0.088581055 -0.09346676 0.03595181 0.026205532 -0.091168664 
-0.092878394 0.031175518 0.0004381068 -0.018361107 -0.080482066 -0.04308065 -0.061322004 0.0860635 -0.013366377 
0.054606706 -0.08936734 -0.08998564 -0.08670981 -0.05309002 0.004509638 0.0994755 0.013698897 0.05999485 
-0.00095955253 0.020362463 0.072014704 -0.033256352 0.00029062325 -0.08016803 0.002478379 0.028718345 -0.10111373 
0.070081145 -0.027158597 -0.054144066 0.019909777 0.08882712 -0.028987749 0.008369986 0.090904765 0.022126822 
-0.065549955 0.09046128 0.046100922 0.031914316 0.051559214 0.08964363 -0.01828223 0.019342406 -0.02372439 
0.09706682 -0.0012640948 -0.008097371 0.035564862 0.028755428 0.02854864 0.085410014 0.052616756 0.0691475 
-0.014294737 -0.00757443 0.04692578 -0.051995058 0.048848953 0.041523453 -0.006062797 0.019651439 0.09289472 
-0.010773711 -0.082022734 -0.071244836 -0.06547444 -0.015789347 -0.0040880535 -0.054878738 0.10232595 0.0070258356 
-0.08436342 0.010039263 -0.09064279 0.06688903 0.085247986 -0.02656195 0.0690104 -0.007697023 -0.034851603 
-0.102942385 0.0832755 0.036652725 -0.072752275 -0.086652905 -0.043051906 -0.079815894 -0.09871982 -0.10621246 
0.088256314 -0.039161243 0.0044962834 -0.006575944 -0.07366832 -0.09498103 0.05535965 -0.07333504 0.035892937 
0.059278622 -0.07839185 0.06327584 0.07966753 -0.04765449 0.047146894 -0.016756387 0.09085365 0.060191635 
-0.06686143 -0.06186432 -0.024445271 -0.031501465 0.049994618 0.011148304 -0.010554223 -0.07401279 -0.03363379 
-0.09197432 -0.019597935 0.10029739 -0.045944374 -0.09495112 0.06080795 -0.077551454 0.04256231 0.009536276 
-0.02422683 0.04409719 0.07946088 -0.04477001 0.029577425 0.05757387 0.053108655 0.028860848 -0.011565914 
0.04456926 -0.104340546 -0.03635878 -0.037142802 0.004804741 0.05140516 -0.08695552 0.04574804 -0.067203924 
0.022838637 0.0022906226 0.0701544 0.0068039573 -0.059163418 -0.07444895 -0.0076111155 -0.0046351305 -0.044845335 
-0.03784344 -0.09959887 -0.089815594 0.09494114 -0.04978953 -0.055309948 -0.021985173 -0.022135345 0.07655534 
-0.022920553 -0.08827692 -0.038191494 -0.061499916 -0.046004437 -0.07147312 0.06529034 -0.09289112 -0.08355903 
0.029290035 0.054596916 -0.05333977 -0.0044267797 0.08487289 -0.0049348455 -0.0016586992 -0.025909396 -0.01738128 
-0.06081788 0.021570353 -0.004116111 -0.056038775 0.06659115 -0.04773523 -0.095601834 0.052233756 -0.06468698 
0.078233 -0.017644562 -0.095480956 0.028675351 0.09884412 0.026571957 -0.07607102 0.04141281 -0.028073592 
-0.030953016 -0.060875013 0.044009093 0.072245136 0.00066140224 0.012640321 -0.014639222 -0.011598803 0.07572196 
-0.06961462 0.06382109 0.056652293 0.027236374 0.057794895 0.004497702 0.08731216 -0.046387922 0.006993081 
-0.08114538 -0.05324301 0.03889037 -0.040134467 -0.06637305 -0.021866277 0.008982736 0.03840205 0.033833 
-0.08696879 0.0016538217 -0.06543303 0.07411984 -0.07184234 0.040125478 0.088254884 0.09270015 -0.008779307 
-0.0059816074 -0.020803802 -0.077671446 0.063419975 -0.03209891 -0.07238162 0.060012285 0.06856416 -0.07265148 
0.04566417 -0.08924473 -0.03938814 -0.07635865 0.06463805 -0.048679154 0.09580367 0.087814145 0.083398506 
-0.030731931 0.09730909 -0.052427903 0.083124466 -0.026563978 -0.08153572 0.06893225 0.044627074 -0.020794945 
-0.0329097 0.0034832817 -0.03935722 -0.02677621 0.07006896 0.012345107 -0.10477865 -0.022087691 0.074390136 
0.08435608 -0.021480655 -0.04704344 -0.08517165 -0.09229449 0.03044249 0.068342745 0.083165616 -0.0836716 
0.09702813 0.077619426 -0.058746826 -0.10230303 -0.037371665 0.059838798 -0.025389012 -0.025695674 -0.021957478 
0.0176792 0.03618918 -0.04498368 -0.009582079 0.06310684 0.050516848 -0.04578237 0.030832728 -0.0376879 
-0.02223894 0.07146711 -0.006321674 0.009786833 0.035898212 0.061779488 0.058605682 -0.06568881 0.04204615 
0.0967902 0.035669476 0.0067547574 -0.061105814 0.052130032 0.015870497 0.009125276 -0.01927585 -0.091004014 
0.005440084 0.07832737 0.06532653 0.049718242 0.071235545 0.0041519324 0.046108328 -0.07698418 0.05329193 
-0.018863078 0.07874078 -0.0602652 0.060970806 0.042163935 0.089443594 -0.0054598423 0.020505466 -0.064491145 
0.009133124 0.036068123 -0.063616686 0.07613968 -0.0647732 -0.0140804425 -0.036508948 -0.040903535 -0.10439851 
0.038469248 0.009396293 -0.007937045 -0.04383629 0.016192848 0.045510005 0.006181427 -0.013234915 0.0033079996 
-0.0012157018 0.0886843 0.009462608 0.034231022 -0.08421001 0.093707904 -0.00939581 -0.018509466 0.042748716 
-0.10259955 0.045232475 0.07100872 -0.10354242 -0.009014952 -0.09664388 -0.098491766 -0.032402206 0.03830444 
-0.098748915 0.045049973 -0.026828825 -0.03429864 0.061447356 -0.059883647 0.0697868 0.06816071 0.012371211 
0.0632869 0.091978244 0.036099304 0.04273813 0.050305307 -0.07717143 -0.039164014 -0.10395832 0.09550821 
-0.022599746 0.035941675 -0.029063804 -0.0036163712 0.060425874 -0.0644474 0.051850013 0.043055482 0.048147775 
-0.051494587 -0.05838235 -0.08152687 -0.015465647 0.0060648094 -0.044858713 0.035966866 -0.097711496 0.08512507 
-0.045518275 -0.038021166 -0.08730545 0.07500781 0.045251705 0.09893205 -0.012977768 -0.05548437 0.05539235 
-0.024451647 -0.07556514 0.013528498 -0.017840192 -0.09787664 -0.05087095 0.010098764 0.024995295 -0.004462357 
0.019054884 0.06355406 -0.044794172 -0.038886942 0.06894322 0.05192955 -0.005911934 0.06772057 -0.07020148 
-0.043793723 0.04582008 -0.0883181 -0.0074518127 -0.0757538 -0.06849569 0.050773874 0.09273558 0.03525759 
0.03707327 -0.046583645 -0.09967005 -0.10288168 0.03896836 -0.0710766 0.039664112 0.07701609 0.091242805 
-0.050517794 0.014158614 0.08707058 -0.10002332 0.003803119 0.04468113 0.051324923 -0.073021784 -0.028174715 
0.007937107 0.062987916 -0.0011460878 -0.09744535 -0.044794016 -0.048902687 0.05977427 -0.0827099 0.03087669 
-0.100863494 0.07235763 0.06599388 0.032758962 -0.029795114 0.054091226 -0.02671363 0.019273935 0.003682797 
0.08663328 -0.068268396 0.06577877 -0.025167659 -0.008249575 0.046242975 0.008160693 -0.09725257 0.03578369 
-0.077788346 0.018135943 -0.093340136 0.010313065 -0.031587802 -0.025070298 0.031874888 0.049002815 -0.05159816 
0.08974418 0.080292754 -0.089456365 0.048471097 0.011829602 0.03855777 -0.008002917 0.033862527 0.05240808 
-0.008698764 0.0660317 0.04443214 8.784916e-05 -0.006122844 -0.08081777 -0.03948223 -0.1036013 0.037727147 
0.04396268 -0.002837863 0.070203826 -0.05448523 0.020152353 0.0011996876 0.020957673 -0.04350638 -0.05075378 
-0.043295525 0.025803085 0.043032102 0.060515758 -0.049942188 0.08094518 -0.07542997 -0.0354524 0.016987022 
0.01591231 0.07863074 -0.0013428493 0.063863784 0.010282285 0.08537429 -0.042052478 -0.059148144 -0.04769556 
0.032237723 -0.053790137 0.09631497 0.096443094 -0.050957754 -0.08053094 0.04475311 0.09717889 0.04221738 
-0.033003233 0.022411961 0.021087185 -0.019176489 0.05401339 0.029848749 0.0121144755 0.01989864 -0.0024654577 
0.08042758 -0.10057329 -0.09899969 -0.037520647 -0.043067813 0.04252894 -0.0129341455 -0.065419115 -0.018971866 
-0.016838573 -0.066329256 0.08447488 0.03393791 -0.029742582 0.030598613 0.05241137 -0.04448993 -0.091254935 
0.03584989 0.033475716 0.06469193 0.014963175 -0.06511168 -0.013645556 0.03764916 0.08207592 0.042514216 
-0.06520261 -0.0511672 0.021711458 -0.035047263 -0.057450853 0.013860752 0.04848444 0.021422267 -0.00025300085 
-0.0040242206 -0.09107852 -0.021148054 0.0073842295 -0.011019514 0.044937573 -0.01630214 -0.029055368 -0.07875473 
0.094546504 -0.030974088 0.003855388 -0.08225948 -0.09386076 0.059056327 0.09253814 0.08802147 -0.0773139 
-0.044900235 0.058364008 -0.024548382 -0.018916192 -0.09370354 -0.025205698 -0.09928958 -0.044286765 0.068626486 
0.053503837 -0.09973791 -0.0008591036 -0.055694893 0.04975644 0.07140922 0.074227445 0.028431796 -0.05778541 
-0.08434589 0.056600638 -0.03655946 0.08484479 -0.07978368 0.026917404 -0.07941685 -0.08614248 -0.089187965 
0.024723578 0.06777191 -0.043364346 -0.0033793785 0.05898441 0.04463158 -0.0880407 0.004728692 0.08660617 
0.013335122 0.052031763 0.032507896 -0.004270148 -0.010665422 -0.10195278 0.054095052 0.080616556 0.022316443 
0.076673 -0.0023776498 -0.06829432 -0.08272924 0.08143219 -0.08762746 0.06200713 0.03868706 0.040102612 
0.078267 0.043950602 -0.014610025 -0.07043911 0.09037476 0.041588943 -0.039325044 -0.08635658 -0.05074252 
0.052617718 0.042798385 0.004587434 -0.012212685 -0.07722711 0.036090128 0.088506304 -0.0561858 -0.038912266 
-0.05223804 -0.059967976 0.012729816 -0.06567033 0.009662637 -0.0125671495 -0.041409206 0.050182708 -0.028482607 
0.06248686 0.089347534 0.07642347 -0.0026096425 -0.0572251 0.008446978 -0.06543889 -0.01033512 -0.048701994 
-0.09572903 -0.036056772 -0.031079872 -0.050219472 0.037912108 0.011930055 -0.009340355 -0.10357412 0.072473556 
0.07790091 0.025357265 -0.086288184 -0.002645689 -0.11040381 -0.0017904455 0.06315549 0.045732424 0.029301707 
-0.015015456 -0.103469424 -0.06512043 -0.038636915 -0.098674946 -0.013961148 -0.06367755 -0.0011640481 -0.05485882 
-0.061330646 -0.10118447 -0.075943075 0.016970394 -0.046633016 0.049998783 -0.084909484 -0.049916673 0.036748186 
-0.079125635 0.076644674 -0.036399473 -0.030351343 -0.08036147 -0.019348452 -0.006055345 -0.08806752 0.063918374 
-0.017424768 -0.029285986 -0.06550541 -0.050911255 -0.04642587 -0.053666554 0.10475817 0.06504226 -0.0681331 
-0.016851477 -0.054978687 -0.015824633 -0.013907682 0.014700495 0.08117626 -0.08448292 -0.024906347 0.07393816 
-0.0750342 0.07363263 -0.031685237 0.036131546 0.016905004 -0.057873845 0.072499506 0.05606652 -0.0464714 
0.059839133 -0.08093809 -0.051339556 -0.08946362 0.032724004 0.027497625 -0.051932223 0.03979238 -0.017813442 
-0.007966763 -0.05860107 -0.030819235 -0.01160474 -0.041945606 -0.023773005 -0.0064272475 -0.0036722072 -0.08808188 
0.074163154 -0.04414701 -0.037361063 0.087499864 -0.057146247 0.056914654 0.041701272 -0.017130427 -0.0010080944 
-0.05516012 -0.09916196 -0.050049085 -0.09911544 0.09799033 0.011570567 0.07281069 -0.010202838 0.05227452 
-0.08804674 -0.09449655 0.038923312 -0.050997116 0.062486574 -0.07618031 0.054086972 -0.09905813 0.07876652 
-0.045106236 -0.10028896 -0.06975764 -0.02900666 0.010702297 -0.081640214 -0.08598885 0.08246724 0.04389844 
0.0021719125 -0.035101485 0.068536416 -0.035359897 -0.07741053 -0.100006245 0.08441239 0.0017790929 0.06723118 
-0.05233288 0.0769977 0.02878001 0.099284165 -0.08220988 -0.028020067 0.0206738 -0.095811345 -0.011135161 
0.018335888 0.099924624 0.07387011 0.017951025 -0.08476772 -0.083125494 -0.09922808 0.008282533 -0.08192924 
-0.039191276 0.07109354 -0.042227507 0.08630485 0.045884207 -0.030331722 0.061605938 0.024438526 -0.023866959 
0.023493038 0.042274307 -0.05464964 -0.08084161 -0.08661592 0.042728964 -0.03555081 0.023108631 -0.032015037 
-0.014949952 -0.03655863 0.0036954249 -0.009416658 -0.09978805 0.069790326 0.03427325 0.05217575 -0.044412438 
0.09989624 -0.03942638 0.047277927 -0.07098292 -0.002370806 -0.0770239 0.06012599 0.07330785 -0.05649043 
0.06654954 0.06634087 0.04738106 -0.005053902 -0.06715214 -0.03408348 -0.09803206 0.0077255475 0.026683314 
0.030981433 -0.051736902 -0.0253129 0.087655485 -0.05554518 -0.030879512 0.040097043 0.01505542 0.03638936 
-0.04443052 -0.059764188 0.082198136 -0.09278931 0.021956492 -0.09326298 -0.05662203 0.022163294 0.052321743 
-0.02354398 0.029487707 0.09714474 -0.091324165 -0.0561526 -0.032905612 0.015529701 0.014137249 0.09304547 
-0.07552676 -0.080664836 -0.013196489 0.10071059 0.06649528 0.034900703 0.049674876 0.033140622 0.08827615 
0.025332816 -0.05834755 0.0443575 0.10461074 -0.045843165 -0.08019497 0.039956257 -0.0038202899 -0.03199582 
-0.011293298 -0.037517857 0.02876333 -0.037638057 -0.027273878 -0.085982434 -0.091913596 -0.071631715 -0.07167743 
0.019695645 0.02280098 0.06326654 0.0077111237 0.018328283 -0.07256458 0.024777552 0.041826896 -0.061914563 
0.05272136 0.08996688 -0.10321097 -0.024471287 -0.07204756 -0.06585368 -0.092811294 0.07744847 0.004087852 
-0.097145475 0.021363774 0.039195362 -0.089829594 -0.06861658 -0.04683877 0.015231678 -0.070170045 -0.014320598 
0.06552448 -0.0026451973 -0.010640883 -0.06840525 -0.060805865 -0.048220053 -0.017830087 -0.04904397 0.077158295 
0.019966679 -0.093947425 -0.031207794 -0.0070436997 -0.072245516 -0.030631859 0.10218835 0.021975614 0.017876979 
-0.043188892 0.09004901 -0.008150037 0.08875866 0.044147972 0.035721235 -0.049714666 0.08885086 -0.035593063 
0.0034330462 0.007991259 0.01521283 0.08804675 -0.060748868 -0.07121951 0.07232892 -0.029529624 -0.03914305 
-0.053190127 0.03568845 -0.08162051 -0.095380224 -0.019938892 -0.026821308 0.05546536 -0.098248936 -0.043706454 
0.08474823 0.070860356 0.058557197 -0.075882204 -0.02200127 0.059752334 0.0067357183 -0.013633516 0.006801177 
-0.102916695 -0.1017915 0.05087362 0.071043536 -0.08105273 -0.045861024 -0.08657857 -0.07481352 -0.007664019 
0.006501829 -0.08200468 0.05388535 0.0010318734 -0.07729316 0.02802153 -0.10284098 -0.09085731 0.008653104 
-0.04465079 0.03751941 -0.021582505 0.010105252 0.09227864 0.09479327 -0.031153902 0.042622406 -0.046306986 
-0.09618858 0.008994987 0.042418804 -0.079009406 -0.09749439 -0.07168098 -0.026853008 0.005298655 0.015775792 
0.013289682 -0.06372652 0.029007886 0.0975895 -0.08304013 -0.08886595 -0.005218271 -0.07520936 -0.030482482 
0.072602175 0.09825188 0.02684766 -0.059726033 -0.04760473 -0.041139435 -0.0050572325 0.093963295 -0.013679893 
-0.09911247 -0.0035573419 -0.050788186 -0.060287505 0.07466016 -0.04589538 0.056069925 -0.030475209 -0.08862029 
-0.004314994 -0.012207012 -0.09244242 0.08634325 0.084402606 -0.06393676 0.013439564 0.017806113 0.06280948 
0.0915976 0.057978354 0.033039566 -0.06022096 0.079311214 0.0038604746 -0.014691274 0.057474416 0.09456795 
-0.090817444 0.07847523 0.041175332 0.027984036 0.06668125 -0.09043859 0.08365192 0.04156743 -0.013061618 
-0.076745294 -0.050308976 -0.051961415 -0.10357181 0.07277999 0.04349654 0.06368167 0.039292186 0.01623292 
-0.09746058 -0.04206723 0.04639745 -0.06792442 -0.004174748 0.027519582 0.036753416 -0.015757857 0.01593915 
0.06551256 0.06521342 0.051013216 0.052208528 -0.08092777 0.061002854 0.10296693 -0.06800164 0.055342156 
-0.09208211 0.05534326 0.047791224 0.087161 -0.070923425 -0.081356674 -0.09367677 -0.056892935 -0.030146087 
-0.0095308535 -0.062265288 0.093424514 -0.050824065 0.05067218 0.05016767 -0.01604967 -0.020001156 -0.09486981 
-0.08355919 -0.097077735 0.019746589 0.08722847 -0.029994924 -0.08152436 -0.05515626 -0.031139798 0.023246933 
-0.099565595 0.07307883 -0.020088369 -0.050182264 -0.10211479 0.05860414 -0.100681745 0.05220513 0.021135474 
-0.07942767 0.08918645 -0.09040467 -0.06865992 0.09341833 -0.05484851 0.026628083 0.006140749 0.048568204 
0.02580266 -0.092476696 0.09378952 -0.015938412 0.006702146 -0.03224822 -0.06842957 -0.06547793 0.04724679 
-0.010090061 -0.005963965 0.06758015 0.04397324 -0.0021970593 0.09727552 -0.05171154 0.09567245 -0.0055406084 
0.09528134 -0.010325785 -0.016011275 -0.092549205 0.077845775 -0.102408744 0.045508917 -0.06627772 -0.10407818 
0.08005219 -0.006122119 0.078190975 0.0032456876 -0.061998885 0.058094464 -0.082979694 0.05181643 -0.0055434494 
-0.004226236 -0.035238083 0.09395974 0.05639927 -0.07402429 -0.008555781 0.019579401 -0.01195326 -0.082179286 
-0.09403777 -0.040230505 -0.100573145 0.048754428 -0.08667481 -0.09149998 -0.10075413 -0.07106131 0.06328194 
-0.04645316 0.06245228 -0.060504325 -0.03185542 0.00068197935 -0.062297106 0.0852701 0.0016235203 0.044194218 
0.04176016 0.09653166 -0.01288821 -0.075971685 0.080834426 0.09393993 0.017350897 0.012065758 0.09594232 
0.061798684 -0.078780085 -0.0064599 -0.08893496 -0.02973444 -0.01178536 0.070917465 0.022744926 -0.086416446 
-0.003159443 0.05504619 0.048256293 0.05364028 -0.005703415 0.10647361 -0.044359077 0.091866426 -0.06967541 
0.00062567444 0.07716545 0.041292127 0.06439437 -0.055741858 0.038707335 0.028446848 0.08227968 0.024525825 
-0.09957129 0.020571306 0.0714544 0.03471069 -0.065582596 -0.0002800897 -0.070605084 0.049270563 -0.07744684 
0.035135794 0.06994581 0.032950126 0.08634392 0.067187615 0.018338883 -0.023000259 0.064553544 0.029188115 
-0.0033040869 -0.015493793 -0.09054971 -0.092885785 0.038708698 -0.084074944 0.053539176 -0.06591258 0.08528727 
0.068846084 -0.10741411 -0.052044213 -0.083114125 0.026784983 -0.073527314 0.0071783005 -0.06913908 -0.0070716855 
0.08994074 -0.08621505 -0.099139005 -0.09733827 -0.093230695 0.09266838 0.09412298 0.041554347 -0.009236166 
-0.028698362 0.03197398 0.020314636 0.06752203 0.033306014 -0.08595388 -0.0074689756 -0.048036896 0.05899189 
0.037837535 0.027761169 0.07278458 -0.011192471 0.019423386 0.06993648 -0.089130566 0.058086675 -0.022749199 
0.024084438 0.040584758 0.079508975 0.094019935 -0.09963481 -0.00909913 0.09273019 0.05790023 -0.034433678 
0.008363905 -0.090871684 0.032366715 0.07639167 0.08417062 0.009823793 0.050163236 0.06255315 0.07841376 
0.06056183 -0.0011871408 0.05640178 0.0140549345 0.02214618 0.09959007 -0.018247966 -0.026912916 -0.0061908746 
-0.085445836 0.03641092 0.019770555 -0.09898635 0.09495443 -0.0042959386 -0.07872877 0.09472633 0.04705607 
0.006970035 -0.014208683 -0.078268796 -0.01377661 0.05387177 0.05898264 -0.03825628 -0.05159056 -0.008497318 
-0.07589283 0.05443485 0.038006764 -0.04934818 0.08435498 -0.08151486 -0.013955142 -0.019896863 -0.013429122 
0.040424336 -0.031110687 0.096694805 -0.058875673 -0.03705084 -0.0070944177 -0.1015813 0.0552502 0.0695446 
-0.015328012 0.04706778 0.022175984 -0.054405678 0.034818303 -0.00075925444 0.022179611 0.031733997 -0.061194874 
-0.07842715 0.015615696 -0.07195891 -0.02073409 -0.040202927 0.06576916 0.059539825 0.09493268 0.05635527 
-0.064513154 -0.07592241 0.015061849 0.06651611 0.04986066 -0.06054709 -0.015665518 -0.07449894 0.0041198963 
-0.02646354 0.011547456 -0.00023044876 -0.091791645 -0.09495097 -0.07448166 0.03514793 0.04329245 -0.040273577 
-0.032298908 -0.05491566 -0.015771663 -0.0135792475 0.0540364 0.04327969 -0.01802118 0.053920653 0.05083747 
0.04767575 0.093281165 -0.02822879 -0.064276315 0.017326158 -0.04689397 -0.051477466 -0.029142896 0.0060751857 
0.016983787 0.08342178 -0.10666379 0.026641844 0.05853403 0.091644086 0.0627868 0.016687036 -0.0740891 
-0.012844672 0.039699715 -0.030492542 -0.08261785 -0.0500014 0.046643905 -0.00430038 0.08757033 0.051347308 
-0.011177498 0.047448058 0.015177834 0.040201377 -0.061891925 0.021542886 0.02429826 -0.098522164 -0.07135619 
-0.05941822 -0.055242356 0.08812353 -0.053637877 -0.057216786 0.060751032 -0.10002214 0.07511176 -0.009480789 
-0.08518997 -0.05793122 -0.012770508 -0.043101095 -0.07197031 -0.036719084 0.060530387 0.028802335 0.037143003 
0.08731071 -0.08525065 -0.0064347526 -0.061842285 0.096481696 0.07964768 -0.046213865 -0.10326488 -0.08662312 
-0.07410899 0.00554402 -0.10347248 -0.08826813 0.08540401 -0.05801797 0.057523157 0.030411106 -0.08722488 
-0.028770896 0.08295309 0.072262585 0.004103365 -0.041616708 0.007980279 0.047899872 0.029628105 -0.0070455503 
0.035772577 0.07094203 -0.04531882 -0.020718284 -0.039961785 0.06342766 -0.006669703 -0.0052442597 0.087964505 
0.0019691603 -0.07780908 -0.068097554 -0.09039663 0.0015133887 0.07347932 -0.030693192 0.07404963 0.008205338 
0.055671126 -0.093000606 -0.09908605 0.07113985 0.0080771055 -0.092609055 0.015375291 -0.06002821 -0.08412063 
-0.0820716 -0.07276585 -0.05689988 0.06747628 0.082685634 0.009659 0.08384751 -0.083800144 0.019168867 
-0.06505806 0.07454077 -0.025101047 -0.040808167 -0.076416545 0.026798557 -0.036861192 -0.09067496 0.06015149 
-0.012582282 -0.017188808 -0.08777625 -0.08211784 -0.05397285 0.047900103 0.06677702 0.047259767 0.0811723 
0.070061736 -0.052990414 0.02470926 -0.0342162 -0.020685324 -0.09237595 -0.037558507 0.035545513 0.052237894 
0.08734837 0.044580273 0.044437066 0.09767799 0.09246734 0.059195343 0.062240392 -0.06468516 -0.044185355 
0.034439605 -0.04181024 -0.05706713 0.016876733 0.008293286 -0.07820978 0.05206136 0.10039443 -0.016582116 
0.0015208934 0.10089758 0.09861726 0.074695624 0.05915372 -0.09097019 0.08376742 0.03723855 -0.018425504 
0.057655696 -0.013977764 0.0861884 0.09451432 0.0885097 0.019472318 0.035904452 -0.038935475 0.06670199 
0.019267576 0.04022384 -0.09509645 0.08933247 -0.0796029 0.02518963 0.08064661 0.085751794 0.05843921 
-0.07730225 -0.017361578 0.023832884 0.09546162 0.01701422 0.07899666 0.034690604 -0.037458453 -0.045309324 
0.042417474 -0.077015154 -0.054896038 -0.027387325 -0.08643417 -0.016595786 0.055968508 0.066195086 0.084018916 
0.03616845 0.052823775 0.08828649 -0.06751104 -0.014324364 0.055503953 -0.068878934 0.0043885955 -0.09753114 
-0.012702305 0.07588321 -0.048697803 -0.083657496 0.0031164854 0.01921169 0.08404331 0.04807919 0.04111523 
-0.0884157 -0.020116452 0.018378707 0.020823875 0.05417193 -0.025687888 -0.0657848 -0.04825775 0.0001409906 
0.032676607 -0.04583793 0.006921276 0.03573963 0.07516453 0.038497105 -0.008568883 -0.04460083 -0.048583295 
-0.011524835 -0.051617745 -0.08835475 0.073334515 0.07712942 0.0014704353 0.025319831 -0.037852325 -0.029234381 
-0.083601534 -0.08946956 -0.015617936 0.07957553 0.0566532 0.081584185 0.08883954 -0.00070361025 -0.013612544 
-0.052984994 -0.050256804 -0.095735915 0.04006578 0.1036361 -0.058644306 0.05732957 -0.052019533 -0.038605526 
-0.040935416 0.012553249 0.04928711 -0.008985312 0.05691388 -0.032744695 -0.034080856 0.051309507 -0.08506234 
-0.08233495 -0.03019947 -0.04078687 0.08820812 0.05746954 -0.008923632 0.06663042 0.024205636 -0.052779283 
-0.008132208 -0.059165798 -0.0959478 -0.053420607 0.056820963 -0.058717705 0.08658043 0.05709297 -0.06419379 
-0.094276465 -0.061737645 -0.023798663 0.022719985 -0.061249185 -0.01720896 -0.019090893 -0.076300524 0.045822944 
-0.040790945 0.054325506 -0.08729191 -0.03522192 -0.062935576 0.092559636 0.06537511 0.081319466 -0.027635008 
-0.08039901 -0.04058964 0.06569462 0.044974823 0.08950385 -0.039122235 0.044242594 0.09178502 -0.034282126 
0.03135361 0.073995836 -0.047523778 0.05828583 -0.065677434 -0.036353767 -0.036593936 0.088276125 0.08746904 
-0.09854793 -0.078649454 0.06569214 0.028876245 0.07993974 0.020554608 -0.027153578 0.09859635 0.06705503 
0.09934894 -0.032753244 0.10242107 0.0491574 -0.056767363 0.025587194 -0.014387488 0.005220451 0.08473924 
0.052608337 0.09321722 0.06257252 0.056650717 0.018621929 0.040069774 -0.03985472 3.3676857e-05 0.040771253 
0.003441806 0.026418976 0.029687176 0.0620483 -0.042746514 -0.06426069 0.013564981 -0.06374891 -0.055726927 
-0.0869241 0.04211178 -0.03029265 0.0173288 -0.04339648 -0.020150818 -0.053925164 0.032980535 0.025466913 
0.007480042 -0.050804727 0.09920382 0.018671572 -0.07831487 -0.012039252 0.034780953 0.05429881 0.026674774 
-0.025574835 -0.07751824 0.051082373 0.07362973 -0.0059803366 -0.003000807 -0.047368687 0.04179859 -0.08282734 
0.045263268 -0.0058556213 0.10040108 -0.07231049 0.097704515 -0.061436888 -0.090934716 0.08767452 -0.030790458 
-0.009223954 -0.064207844 0.08371037 -0.052312117 -0.016943682 -0.038855284 0.06664689 0.093093686 -0.06449326 
0.081291236 0.060567465 0.035496075 -0.03956154 0.07775937 -0.043883484 0.025359336 0.08876186 0.023713363 
-0.050686892 0.052434605 0.018764842 0.035698898 -0.038763616 0.06495147 0.078079894 -0.07199983 0.058416385 
-0.073121965 -0.053120807 0.020875502 -0.006110831 -0.06777819 -0.014485929 -0.028786035 0.089852415 -0.073428616 
0.009116281 -0.043632314 0.097269975 0.0624098 -0.068654194 -0.01761868 -0.100291565 -0.024651855 0.070992775 
0.054668102 -0.09756251 -0.05787548 -0.033305977 0.05250231 0.09241748 -0.06185949 -0.009604019 0.009805864 
-0.06885723 -0.03415491 -0.015300148 -0.0351726 -0.09094912 -0.09309015 -0.06457086 -0.024798641 0.083557926 
0.08273084 0.021722542 0.044548366 -0.05893516 0.032903273 0.01612267 -0.07074397 -0.037894953 0.09254875 
0.09955522 -0.08889149 -0.058062352 0.06010118 0.09994999 -0.04655027 0.06966207 -0.039524928 0.094934374 
0.07983839 -0.054543987 0.04337794 0.042857572 0.014090302 0.07278115 -0.09464097 0.008572444 0.013224503 
-0.0611977 0.085463434 -0.0012728492 -0.04731565 0.03668414 -0.05393359 0.0375297 -0.004658642 0.0343742 
-0.08178269 0.056591656 -0.067096196 0.025001252 -0.008209181 0.041875105 -0.07786049 -0.079932556 -0.0027787115 
0.019593712 -0.02583973 0.098928526 -0.028612537 0.022770084 -0.05554461 -0.049557224 -0.048101984 0.009916433 
-0.005789211 0.034926165 -0.0731346 0.009738838 0.05626785 0.08535822 0.018917501 -0.043028332 0.06535683 
-0.029146744 -0.0011576973 0.016922254 0.0091656735 0.09438192 -0.05453325 0.05441412 0.054454643 -0.02115973 
0.08671708 0.06283031 0.004045603 0.07915805 0.027917217 0.02588368 0.0606662 0.035694964 0.00076116895 
-0.08597823 -0.058108285 0.06702002 0.022264844 -0.05663058 0.09473297 0.039525855 -0.0863094 0.04003519 
0.04136388 0.08123581 -0.07173099 -0.086477295 0.09122654 -0.046103377 -0.08543698 -0.005642012 -0.063900106 
0.09306614 0.0052133566 0.06291269 -0.0947317 0.014730661 0.0711899 -0.02966117 -0.06323522 -0.005149529 
-0.011161223 0.08497639 -0.06638079 -0.041564576 0.053403646 -0.04416736 -0.07885809 0.05840062 -0.017682342 
0.01656997 -0.08650992 0.063219436 -0.042843442 0.03822438 -0.07215473 0.06280192 0.086072825 -0.0041580773 
0.08739485 -0.09358129 -0.0010511826 0.033723734 -0.00047478898 0.09617485 -0.018773595 -0.041236747 -0.011671602 
-0.04383289 0.039988767 -0.04614297 0.011307066 -0.08139938 -0.04829752 0.077890545 -0.00961969 -0.04143752 
-0.022514144 0.039428487 -0.0766085 0.0062937383 -0.026275808 0.09935812 0.09791256 -0.050774008 -0.097944126 
-0.06865124 -0.096576944 -0.0811889 0.08178799 0.02185045 0.08802311 -0.034544133 -0.040548738 -0.020896785 
-0.07614659 -0.042515695 -0.03581301 -0.005924497 -0.030401813 0.058254734 -0.061610423 0.039524656 0.07584986 
0.0714713 0.07903063 -0.026695881 -0.04166472 -0.052656986 0.084047884 -0.05519527 -0.0024087306 0.02467627 
0.0274168 -0.04135252 0.07998677 -0.032020826 0.019821638 -0.06736242 0.09974307 0.036967468 -0.026358983 
0.014523211 0.08330153 0.045448866 -0.019751377 -0.028994212 0.03449833 0.04994045 0.009518234 0.02428046 
0.08357769 0.029675774 -0.0747596 -0.07698349 0.017177828 0.03602844 0.052898016 -0.08128497 0.08998958 
-0.033076797 -0.010533988 0.0076426314 0.038715877 0.053748395 -0.001270123 0.0043405895 -0.020006787 0.06641278 
0.021886129 -0.019255258 -0.041913062 0.020631962 -0.019902535 0.061802156 0.065261416 0.08830285 0.004253671 
0.088227265 0.086873814 0.058026258 0.014161437 -0.021090768 -0.049479373 0.07868518 -0.0045768586 0.068984136 
0.015509872 -0.049714196 -0.013040217 -0.0526928 -0.054721206 0.050414942 0.043237932 -0.10347235 0.046724472 
0.035816226 0.019981572 -0.0075858873 0.09138149 0.078831896 0.07132901 -0.05579332 0.031245088 0.0004700596 
0.026273662 0.009522471 0.090020515 -0.048119362 -0.023587463 -0.091324665 0.08702914 0.0284197 -0.023488013 
0.024966473 0.097351715 -0.024266968 0.0027732581 0.06230529 -0.019203318 0.053094696 -0.017919583 0.06715832 
-0.0018149163 -0.10262222 -0.04885085 0.01300706 -0.061648104 -0.055974808 -0.045486763 0.07585132 0.06575171 
0.071789995 -0.06959358 0.054288566 0.0615115 -0.031475253 -0.04879595 -0.07152178 -0.06472071 -0.07474219 
0.03388456 -0.004007207 -0.015884748 -0.047364764 0.010910078 -0.073158 0.03305344 0.0065509146 -0.023646804 
-0.043570507 0.021084854 0.038253743 -0.02549753 0.0379723 -0.09739242 0.0885169 0.0134412 0.040488154 
0.08006396 0.054370668 -0.035424806 0.08300614 0.07935244 0.068112075 0.07475881 -0.057943713 0.022681143 
-0.0034571968 0.04994857 -0.00028070307 0.032709453 0.06720186 -0.07113947 -0.09256588 -0.0043403986 -0.040523183 
0.061063487 -0.060063124 -0.0897552 0.085771814 -0.0701377 -0.01272304 0.076806895 0.026204094 -0.0978441 
-0.09857376 -0.070698656 -0.03445448 -0.092482656 0.010762563 0.06223333 0.014054082 0.10217568 0.006839187 
-0.033516947 0.067461595 -0.037229225 -0.040461022 -0.08430762 -0.043055296 -0.096918456 0.08004893 0.10016666 
